tree
version=v3
num_class=3
num_tree_per_iteration=3
label_index=0
max_feature_idx=304
objective=multiclass num_class:3
average_output
feature_names=open_ETH high_ETH low_ETH close_ETH Volume_ETH_ETH tradecount_ETH minute_ETH hour_ETH dayofweek_ETH rsi9_ETH ma10_ETH ma35_ETH ema5_ETH ema8_ETH ema13_ETH ema200_ETH wma10_ETH wma20_ETH wma150_ETH upperband_ETH middleband_ETH lowerband_ETH sar_ETH adosc_ETH trix_ETH open_BTC high_BTC low_BTC close_BTC Volume_BTC_BTC tradecount_BTC minute_BTC hour_BTC dayofweek_BTC rsi9_BTC ma10_BTC ma35_BTC ema5_BTC ema8_BTC ema13_BTC ema200_BTC wma10_BTC wma20_BTC wma150_BTC upperband_BTC middleband_BTC lowerband_BTC sar_BTC adosc_BTC trix_BTC train_1 open_ETH_1 high_ETH_1 low_ETH_1 close_ETH_1 Volume_ETH_ETH_1 tradecount_ETH_1 minute_ETH_1 hour_ETH_1 dayofweek_ETH_1 rsi9_ETH_1 ma10_ETH_1 ma35_ETH_1 ema5_ETH_1 ema8_ETH_1 ema13_ETH_1 ema200_ETH_1 wma10_ETH_1 wma20_ETH_1 wma150_ETH_1 upperband_ETH_1 middleband_ETH_1 lowerband_ETH_1 sar_ETH_1 adosc_ETH_1 trix_ETH_1 open_BTC_1 high_BTC_1 low_BTC_1 close_BTC_1 Volume_BTC_BTC_1 tradecount_BTC_1 minute_BTC_1 hour_BTC_1 dayofweek_BTC_1 rsi9_BTC_1 ma10_BTC_1 ma35_BTC_1 ema5_BTC_1 ema8_BTC_1 ema13_BTC_1 ema200_BTC_1 wma10_BTC_1 wma20_BTC_1 wma150_BTC_1 upperband_BTC_1 middleband_BTC_1 lowerband_BTC_1 sar_BTC_1 adosc_BTC_1 trix_BTC_1 train_2 open_ETH_2 high_ETH_2 low_ETH_2 close_ETH_2 Volume_ETH_ETH_2 tradecount_ETH_2 minute_ETH_2 hour_ETH_2 dayofweek_ETH_2 rsi9_ETH_2 ma10_ETH_2 ma35_ETH_2 ema5_ETH_2 ema8_ETH_2 ema13_ETH_2 ema200_ETH_2 wma10_ETH_2 wma20_ETH_2 wma150_ETH_2 upperband_ETH_2 middleband_ETH_2 lowerband_ETH_2 sar_ETH_2 adosc_ETH_2 trix_ETH_2 open_BTC_2 high_BTC_2 low_BTC_2 close_BTC_2 Volume_BTC_BTC_2 tradecount_BTC_2 minute_BTC_2 hour_BTC_2 dayofweek_BTC_2 rsi9_BTC_2 ma10_BTC_2 ma35_BTC_2 ema5_BTC_2 ema8_BTC_2 ema13_BTC_2 ema200_BTC_2 wma10_BTC_2 wma20_BTC_2 wma150_BTC_2 upperband_BTC_2 middleband_BTC_2 lowerband_BTC_2 sar_BTC_2 adosc_BTC_2 trix_BTC_2 train_3 open_ETH_3 high_ETH_3 low_ETH_3 close_ETH_3 Volume_ETH_ETH_3 tradecount_ETH_3 minute_ETH_3 hour_ETH_3 dayofweek_ETH_3 rsi9_ETH_3 ma10_ETH_3 ma35_ETH_3 ema5_ETH_3 ema8_ETH_3 ema13_ETH_3 ema200_ETH_3 wma10_ETH_3 wma20_ETH_3 wma150_ETH_3 upperband_ETH_3 middleband_ETH_3 lowerband_ETH_3 sar_ETH_3 adosc_ETH_3 trix_ETH_3 open_BTC_3 high_BTC_3 low_BTC_3 close_BTC_3 Volume_BTC_BTC_3 tradecount_BTC_3 minute_BTC_3 hour_BTC_3 dayofweek_BTC_3 rsi9_BTC_3 ma10_BTC_3 ma35_BTC_3 ema5_BTC_3 ema8_BTC_3 ema13_BTC_3 ema200_BTC_3 wma10_BTC_3 wma20_BTC_3 wma150_BTC_3 upperband_BTC_3 middleband_BTC_3 lowerband_BTC_3 sar_BTC_3 adosc_BTC_3 trix_BTC_3 train_4 open_ETH_4 high_ETH_4 low_ETH_4 close_ETH_4 Volume_ETH_ETH_4 tradecount_ETH_4 minute_ETH_4 hour_ETH_4 dayofweek_ETH_4 rsi9_ETH_4 ma10_ETH_4 ma35_ETH_4 ema5_ETH_4 ema8_ETH_4 ema13_ETH_4 ema200_ETH_4 wma10_ETH_4 wma20_ETH_4 wma150_ETH_4 upperband_ETH_4 middleband_ETH_4 lowerband_ETH_4 sar_ETH_4 adosc_ETH_4 trix_ETH_4 open_BTC_4 high_BTC_4 low_BTC_4 close_BTC_4 Volume_BTC_BTC_4 tradecount_BTC_4 minute_BTC_4 hour_BTC_4 dayofweek_BTC_4 rsi9_BTC_4 ma10_BTC_4 ma35_BTC_4 ema5_BTC_4 ema8_BTC_4 ema13_BTC_4 ema200_BTC_4 wma10_BTC_4 wma20_BTC_4 wma150_BTC_4 upperband_BTC_4 middleband_BTC_4 lowerband_BTC_4 sar_BTC_4 adosc_BTC_4 trix_BTC_4 train_5 open_ETH_5 high_ETH_5 low_ETH_5 close_ETH_5 Volume_ETH_ETH_5 tradecount_ETH_5 minute_ETH_5 hour_ETH_5 dayofweek_ETH_5 rsi9_ETH_5 ma10_ETH_5 ma35_ETH_5 ema5_ETH_5 ema8_ETH_5 ema13_ETH_5 ema200_ETH_5 wma10_ETH_5 wma20_ETH_5 wma150_ETH_5 upperband_ETH_5 middleband_ETH_5 lowerband_ETH_5 sar_ETH_5 adosc_ETH_5 trix_ETH_5 open_BTC_5 high_BTC_5 low_BTC_5 close_BTC_5 Volume_BTC_BTC_5 tradecount_BTC_5 minute_BTC_5 hour_BTC_5 dayofweek_BTC_5 rsi9_BTC_5 ma10_BTC_5 ma35_BTC_5 ema5_BTC_5 ema8_BTC_5 ema13_BTC_5 ema200_BTC_5 wma10_BTC_5 wma20_BTC_5 wma150_BTC_5 upperband_BTC_5 middleband_BTC_5 lowerband_BTC_5 sar_BTC_5 adosc_BTC_5 trix_BTC_5
feature_infos=[316.93000000000001:4363.8699999999999] [317.75:4375] [315:4357.0299999999997] [315.66000000000003:4364.9399999999996] [0:146387.34400000001] [0:145866] [0:59] [0:23] [0:6] [3.207542470113721:98.579916441704398] [317.5220000000005:4360.3569999999027] [319.87971428571439:4341.3111428571528] [317.66752321410627:4359.9968205199648] [317.74517459612468:4358.4359584727536] [318.30780910147377:4355.7430669266241] [322.05390422790532:4311.4595290497482] [317.25945454652486:4359.7278177753078] [318.33219047769762:4358.119666694578] [320.61724061805415:4326.822827375544] [320.56073190860212:4388.1520352158668] [318.99899999999974:4355.2814999999928] [313.87642707146614:4338.3107224356563] [312.73388799999998:4378.4276] [-59003.019044040237:50787.291617635638] [-0.63256929365202996:0.22934024895728822] [10172.08:64735.699999999997] [10194.5:64944.989999999998] [10155.5:64666.980000000003] [10168.889999999999:64944.989999999998] [0:15441.554] [0:102480] [0:59] [0:23] [0:6] [1.7156769585469234:98.100735233801799] [10177.476000000082:64711.361000002405] [10222.076571428568:64624.228857142887] [10176.345141649697:64696.986707342694] [10180.114547819967:64686.802860140328] [10190.423594379041:64656.949706466148] [10252.31935897384:64421.680675957963] [10174.369636397572:64708.105463980501] [10189.368238109681:64668.40247870257] [10238.447413685475:64537.925624652307] [10232.680827598664:64923.569934937164] [10202.527000000029:64662.246000000101] [10136.291183652665:64553.85673524718] [10133.213599999999:64951.29376] [-8039.0909313308075:6151.7986498034152] [-0.41206949433648665:0.28612051373009262] [0:2] [316.51999999999998:4368.4499999999998] [317.79000000000002:4372.5799999999999] [316.37:4359.8299999999999] [317:4363.8800000000001] [0:146387.34400000001] [0:143482] [0:59] [0:23] [0:6] [2.2081269599899667:99.228456731115671] [317.44400000000053:4359.0529999999026] [319.84171428571437:4341.1185714285821] [317.11901093323831:4361.0452307799469] [317.43522448073173:4358.3490894649685] [318.22077728505275:4355.2435780810611] [322.05424497391442:4311.4457554723585] [317.0472727283427:4360.2532723207532] [318.26095238245972:4357.5303333612428] [320.6072582780983:4326.8573006647275] [320.5647210355387:4388.4659093782739] [318.90949999999975:4355.6014999999934] [313.82201875973527:4339.8798127139044] [312.47280000000001:4379.1800000000003] [-59440.393000144511:51786.300694707781] [-0.63634448501964647:0.22676447607377082] [10161.34:64783.709999999999] [10182.389999999999:64950] [10159.549999999999:64710.059999999998] [10171.99:64735.690000000002] [0:14363.778] [0:115421] [0:59] [0:23] [0:6] [1.6911165334506946:99.838080458072113] [10179.935000000081:64711.361000002405] [10222.120285714283:64623.358857142885] [10168.412712474546:64703.980061014045] [10176.658704339958:64687.889391608995] [10189.88086010888:64653.355510490088] [10252.190809817799:64421.34580837965] [10172.948909124831:64708.172191253158] [10190.484047633488:64666.24319298828] [10238.200450330067:64538.857678515444] [10232.680827598664:64921.177816736476] [10201.353000000028:64672.385500000106] [10136.020032438302:64558.782261208791] [10132.209999999999:64974.620999999999] [-9874.2325279900688:5276.3807284174254] [-0.41583185205670281:0.2861533975458519] [0:2] [315.61000000000001:4364.9499999999998] [317.75:4379.1800000000003] [315.61000000000001:4362.2600000000002] [316.52999999999997:4368.4200000000001] [0:107694.72199999999] [0:192985] [0:59] [0:23] [0:6] [2.2081269599899667:99.228456731115671] [317.5340000000005:4360.3569999999027] [319.82028571428577:4341.3111428571528] [316.66851639985748:4359.9968205199648] [317.2681457609408:4358.4359584727536] [318.25424016589488:4355.7430669266241] [322.05333462443559:4311.4811461449426] [317.03272727379698:4359.7278177753078] [318.33219047769762:4358.119666694578] [320.62015717434554:4326.8706922762049] [320.56164167855917:4387.1662257306689] [318.89749999999975:4355.6014999999934] [313.87642707146614:4339.8798127139044] [312.36000000000001:4379.1800000000003] [-70564.337590815499:47682.637252103537] [-0.63763754621403157:0.22255161077886498] [10144.84:64783.709999999999] [10174.01:64950] [10144.84:64710.059999999998] [10161.34:64784] [0:13729.481] [0:223636] [0:59] [0:23] [0:6] [1.7067786755416827:99.838080458072113] [10178.826000000083:64706.24100000241] [10222.076571428568:64624.228857142887] [10166.624068711819:64703.190091521072] [10177.992619865659:64686.802860140328] [10190.729336793695:64654.245000389281] [10252.253029011948:64421.114452825706] [10174.369636397572:64708.105463980501] [10190.656333347779:64666.629097750178] [10238.205726268256:64539.097099266] [10232.680827598664:64919.703290971818] [10201.92400000003:64672.385500000106] [10136.291183652665:64558.782261208791] [10133.213599999999:64986.110000000001] [-8709.96836681274:5276.3807284174254] [-0.41583185205670281:0.28739867200509028] [0:2] [314.45999999999998:4368.4499999999998] [315.69:4372.5799999999999] [313.63:4359.8299999999999] [315.57999999999998:4364.9399999999996] [0:107694.72199999999] [0:192868] [0:59] [0:23] [0:6] [2.7089367907802355:97.381594281178579] [317.5220000000005:4360.3569999999027] [319.83057142857149:4341.1185714285821] [316.37777459978622:4361.0452307799469] [317.27333026406671:4358.4359584727536] [318.22077728505275:4355.7430669266241] [322.05216210809829:4311.4811461449426] [317.0472727283427:4359.6647268662255] [318.3576666681742:4358.119666694578] [320.62124326706078:4326.8937412828272] [320.56073190860212:4388.1520352158668] [318.95799999999974:4355.6014999999934] [313.82201875973527:4339.8798127139044] [312.47280000000001:4379.1800000000003] [-70564.337590815499:50787.291617635638] [-0.63763754621403157:0.22249849343840555] [10151.5:64810.970000000001] [10155:64870.239999999998] [10132.209999999999:64662.93] [10145.129999999999:64784] [0:19087.279999999999] [0:263775] [0:59] [0:23] [0:6] [1.6911165334506946:97.823185960481965] [10177.476000000082:64711.361000002405] [10222.051428571427:64623.123714285743] [10168.412712474546:64704.485137281605] [10176.658704339958:64687.889391608995] [10190.423594379041:64654.245000389281] [10252.458386087445:64422.004748834006] [10172.948909124831:64708.172191253158] [10189.368238109681:64666.63514536924] [10238.399267990109:64539.097099266] [10232.680827598664:64916.034067779961] [10202.75500000003:64667.397500000101] [10136.201110625869:64546.799200295274] [10132.209999999999:64986.110000000001] [-8039.0909313308075:5465.5665238058427] [-0.41295891211641234:0.28612051373009262] [0:2] [315.61000000000001:4363.8699999999999] [316.23000000000002:4379.1800000000003] [312.36000000000001:4362.2600000000002] [314.49000000000001:4368.4200000000001] [0:106121.484] [0:159395] [0:59] [0:23] [0:6] [2.2081269599899667:98.579916441704398] [317.44400000000053:4360.3569999999027] [319.83171428571433:4341.3111428571528] [316.66851639985748:4360.3945470133094] [317.2681457609408:4358.4359584727536] [318.25424016589488:4355.7430669266241] [322.05117881270229:4311.4811461449426] [317.03272727379698:4360.2532723207532] [318.26095238245972:4358.119666694578] [320.61724061805415:4326.8706922762049] [320.56073190860212:4388.4659093782739] [318.99899999999974:4355.2814999999928] [313.87642707146614:4338.3107224356563] [312.36000000000001:4378.4276] [-66643.401953069493:51786.300694707781] [-0.63256929365202996:0.22682170155003956] [10144.84:64943.559999999998] [10173.34:64986.110000000001] [10132.780000000001:64778.349999999999] [10151.48:64812.959999999999] [0:13729.481] [0:189010] [0:59] [0:23] [0:6] [1.6911165334506946:97.13480473149059] [10179.935000000081:64711.361000002405] [10222.273142857141:64623.358857142885] [10166.624068711819:64722.09609451249] [10177.992619865659:64687.889391608995] [10189.88086010888:64653.355510490088] [10252.31935897384:64421.680675957963] [10174.874000033949:64708.172191253158] [10190.484047633488:64668.40247870257] [10238.447413685475:64538.420429950325] [10232.951725333289:64918.058201900574] [10202.527000000029:64672.385500000106] [10136.976528561943:64553.115219091298] [10135.883855999999:64903.709999999999] [-9874.2325279900688:6151.7986498034152] [-0.41206949433648665:0.28084345758829787] [0:2] [314.45999999999998:4364.9499999999998] [315.69:4372.5799999999999] [313.63:4359.8299999999999] [315.57999999999998:4363.8800000000001] [0:146387.34400000001] [0:192985] [0:59] [0:23] [0:6] [2.2081269599899667:99.228456731115671] [317.5340000000005:4359.2879999999031] [319.82914285714287:4341.3111428571528] [316.37777459978622:4360.3945470133094] [317.27333026406671:4358.3490894649685] [318.30780910147377:4355.2435780810611] [322.05117881270229:4311.448092337354] [317.21145454652395:4360.2532723207532] [318.33219047769762:4357.5303333612428] [320.6072582780983:4326.8937412828272] [320.56073190860212:4388.4659093782739] [318.90949999999975:4355.6014999999934] [313.82201875973527:4339.8798127139044] [312.73388799999998:4379.1800000000003] [-59440.393000144511:48198.549730997533] [-0.63634448501964647:0.22937354376453278] [10151.5:64943.559999999998] [10155:64986.110000000001] [10132.209999999999:64778.349999999999] [10145.129999999999:64944.989999999998] [0:13729.481] [0:149108] [0:59] [0:23] [0:6] [1.6911165334506946:99.838080458072113] [10181.104000000083:64706.24100000241] [10222.120285714283:64624.228857142887] [10169.266103067728:64726.529058883614] [10180.114547819967:64686.802860140328] [10190.729336793695:64654.245000389281] [10252.190809817799:64421.34580837965] [10174.369636397572:64708.105463980501] [10192.784952395394:64666.119335845426] [10238.200450330067:64537.925624652307] [10232.680827598664:64919.909357187869] [10201.353000000028:64672.385500000106] [10136.020032438302:64553.115219091298] [10133.213599999999:64903.709999999999] [-8709.96836681274:5465.5665238058427] [-0.41583185205670281:0.28323388711912756]
tree_sizes=3477 3488 3494 3474 3508 3507 3463 3525 3493 3476 3523 3509 3471 3503 3489 3467 3513 3481 3477 3498 3509 3461 3483 3484 3471 3507 3501 3442 3513 3499 3456 3521 3480 3447 3502 3490 3457 3505 3496 3463 3493 3487 3449 3494 3496 3455 3508 3504 3460 3487 3497 3468 3524 3479 3452 3523 3495 3478 3491 3494 3469 3496 3501 3461 3504 3484 3456 3521 3502 3479 3506 3481 3473 3503 3497 3469 3511 3483 3461 3506 3481 3457 3496 3505 3463 3510 3506 3469 3500 3487 3445 3505 3496 3444 3510 3487 3450 3488 3506 3470 3522 3497 3463 3490 3474 3455 3508 3497 3472 3524 3494 3473 3499 3489 3468 3498 3502 3475 3502 3491 3467 3498 3515 3468 3519 3519 3471 3519 3515 3446 3500 3505 3470 3504 3517 3460 3520 3499 3463 3506 3498 3471 3514 3492 3453 3519 3509 3478 3496 3483

Tree=0
num_leaves=31
num_cat=0
split_feature=50 101 101 9 9 152 9 152 9 34 254 152 254 4 60 254 4 60 136 60 34 203 111 152 187 9 111 34 34 111
split_gain=173911 2803.44 2549.64 759.72 608.826 649.807 608.699 640.473 598.038 286.246 280.209 246.346 201.392 198.613 146.786 122.669 120.633 115.978 115.438 114.694 153.205 111.438 109.85 108.097 96.8492 94.086 144.457 90.4313 84.9128 75.5466
threshold=1.0000000180025095e-35 1.0000000180025095e-35 1.0000000180025095e-35 49.665896356541559 50.487404992144455 1.0000000180025095e-35 56.51087914836635 1.0000000180025095e-35 43.309296809639925 39.793976835386047 1.0000000180025095e-35 1.0000000180025095e-35 1.0000000180025095e-35 4494.170000000001 53.116036598776759 1.0000000180025095e-35 7488.7565000000004 38.496749645404982 35.233086995309186 60.108123613235129 68.461153033209897 1.0000000180025095e-35 52.415204036491538 1.0000000180025095e-35 46.179789641342772 50.345801325749569 59.637769888521419 48.834291018795028 58.164242498649607 39.832477448415098
decision_type=2 2 2 2 2 2 2 2 2 2 2 2 2 2 2 2 2 2 2 2 2 2 2 2 2 2 2 2 2 2
left_child=2 8 6 18 11 -6 7 9 -2 15 -7 -3 24 21 17 16 -1 -10 -4 -5 28 -12 -14 -8 -11 29 -27 -16 -21 -9
right_child=1 4 3 19 5 10 23 25 14 12 13 -13 22 -15 27 -17 -18 -19 -20 20 -22 -23 -24 -25 -26 26 -28 -29 -30 -31
leaf_value=0.41990824503014923 -1.6054584838794117 -1.7665684932354488 -0.20000260495264888 0.29438411781717755 -1.2552417658327362 -1.4776971461079436 0.74901101020330496 0.17700423146500599 -0.28695788672069156 0.73083006966227404 -1.480279049437498 -2.0141795669757681 0.51963103892859697 -1.6839825022506969 -1.6817780537797398 -0.040391823697625284 0.086026238811196976 -0.98172149882478277 -0.62501373604653065 -0.37465007652755622 0.31767128375017673 -1.8968822979570663 0.13053628020718011 0.52007568793797931 0.55114662508672652 0.47444366562401963 -0.31639435451023623 -1.1646787712795266 0.022995377356137547 -0.25332721053803964
leaf_weight=8267.1712419986725 3809.4530715942383 4463.9030647277832 915.12367630004883 2329.0339202880859 1898.6634311676025 1924.9113185405731 9042.4256386756897 569.92853593826294 269.40897941589355 4284.7285504341125 652.37139463424683 40219.824401855469 1388.7532510757446 5258.7498471736908 410.40267491340637 763.54680800437927 1245.1072494983673 2221.4689943790436 2118.5364027023315 936.97457838058472 1050.1670258045197 40700.341324806213 1519.4814195632935 2671.918336391449 10002.255882501602 759.24446368217468 331.96248745918274 1922.2713942527771 1258.016373872757 1435.4151735305786
leaf_count=24977 11510 13489 2765 7037 5735 5816 27321 1722 814 12946 1971 121521 4196 15889 1240 2307 3762 6712 6401 2831 3173 122975 4591 8073 30221 2294 1003 5808 3801 4337
internal_value=-1.1127 -1.85492 0.401981 -0.0941015 -1.90445 -1.82914 0.502975 0.428698 -1.30929 0.477296 -1.85159 -1.98944 0.556207 -1.86703 -1.07539 0.34525 0.376205 -0.906577 -0.496806 0.125064 0.00354342 -1.89031 0.316339 0.696793 0.605034 -0.00244213 0.233858 -1.25566 -0.146747 -0.131025
internal_weight=0 103752 50889.8 8607.85 95118.8 50435 42281.9 30567.6 8633.01 27471 48536.4 44683.7 17195.2 46611.5 4823.55 10275.8 9512.28 2490.88 3033.66 5574.19 3245.16 41352.7 2908.23 11714.3 14287 3096.55 1091.21 2332.67 2194.99 2005.34
internal_count=467238 313480 153758 26008 287396 152386 127750 92356 26084 83000 146651 135010 51954 140835 14574 31046 28739 7526 9166 16842 9805 124946 8787 35394 43167 9356 3297 7048 6632 6059
is_linear=0
shrinkage=1


Tree=1
num_leaves=31
num_cat=0
split_feature=50 5 101 152 30 203 2 56 4 55 254 9 152 9 9 101 9 152 209 254 101 9 9 257 9 295 101 267 106 9
split_gain=20058.1 9110.83 2219.07 1971.09 1416.37 1151.22 1054.41 1255.28 581.579 581.318 545.941 520.206 416.018 471.215 407.192 386.855 292.3 262.537 286.688 251.693 227.682 226.63 222.529 219.083 218.934 207.604 203.3 184.735 174.767 173.469
threshold=1.0000000180025095e-35 1015.5000000000001 1.0000000180025095e-35 1.0000000180025095e-35 424.50000000000006 1.0000000180025095e-35 1612.2150000000004 2309.5000000000005 1627.3490000000004 637.02150000000017 1.0000000180025095e-35 45.429855325588413 1.0000000180025095e-35 53.106119580519596 44.550728670482236 1.0000000180025095e-35 58.828162897270431 1.0000000180025095e-35 647.50000000000011 1.0000000180025095e-35 1.0000000180025095e-35 47.296283215509298 43.464354169245524 1770.1650000000002 41.885568633524407 10516.354615276241 1.0000000180025095e-35 408.70594005171819 1056.3285000000003 72.35705658195333
decision_type=2 2 2 2 2 2 2 2 2 2 2 2 2 2 2 2 2 2 2 2 2 2 2 2 2 2 2 2 2 2
left_child=2 4 12 8 25 -6 21 10 -3 -7 -8 26 13 19 -4 -11 -14 -17 -19 24 -9 -5 -22 -20 -1 -2 -12 -27 -13 -16
right_child=1 3 14 6 5 9 7 20 -10 15 11 28 16 -15 29 17 -18 18 23 -21 22 -23 -24 -25 -26 27 -28 -29 -30 -31
leaf_value=-1.6366910939115082 -0.63871860034543215 -0.25576371815368526 -0.76629589705608903 -1.6623824694912659 -0.14771707228577557 -0.49948753141510438 -0.5378267644172402 -0.69048940071784926 -0.8467049257128958 -0.12568746704596723 -0.13696035370316118 -0.81036951243043376 -1.3012651541746658 -1.9322799056861484 -1.2300292483164981 -0.11548825360577264 -1.7639297142641766 -0.71290337283502614 -1.075062080669491 -1.4146059449239248 -1.5730808105269967 -1.3660072148810876 -1.2992393305917826 -0.77376798014281878 -1.8403209368170637 -0.11510142900432063 -1.3124539118208622 -0.44086806717087423 -1.0243742254730248 -1.7238612934635609
leaf_weight=11736.07856720686 1114.7443635165691 2447.6629981994629 1909.85595703125 4050.6690099239349 4232.5258129239082 9341.480051189661 2421.0226605832577 491.68097344040871 5211.0146598815918 812.67620095610619 150.79228168725967 6133.8287374079227 3505.0847339630127 12105.87088394165 5848.8432331085205 500.78712394833565 2237.0105762481689 8466.7676059603691 6399.0438818335533 2906.1291732788086 4271.4004937708378 7106.707576751709 9720.9444578588009 3874.7371595799923 9598.0428895950317 8162.2994029521942 6055.7411994934082 2212.6298796832561 10098.765038281679 809.80414962768555
leaf_count=35622 3385 7428 5797 12296 12847 28354 7348 1492 15817 2467 459 18618 10639 36745 17753 1520 6790 25699 19423 8821 12965 21571 29506 11761 29133 24775 18381 6716 30652 2458
internal_value=-1.12162 -0.868978 -1.63721 -1.13058 -0.531757 -0.635323 -1.20227 -1.12532 -0.657844 -0.705531 -0.988981 -1.03766 -1.73164 -1.77116 -1.17334 -0.80151 -1.48151 -0.830054 -0.849148 -1.69069 -1.35933 -1.47361 -1.38283 -0.96143 -1.7283 -0.228638 -1.28389 -0.184577 -0.943508 -1.29009
internal_weight=0 103278 50656.7 58160.2 45117.7 33628 50501.6 39344.2 7658.68 29395.5 24860.1 22439.1 42088.2 36346.1 8568.5 20054 5742.1 19241.3 18740.5 24240.3 14484 11157.4 13992.3 10273.8 21334.1 11489.7 6206.53 10374.9 16232.6 6658.65
internal_count=467238 313480 153758 176533 136947 102071 153288 119421 23245 89224 75458 68110 127750 110321 26008 60870 17429 58403 56883 73576 43963 33867 42471 31184 64755 34876 18840 31491 49270 20211
is_linear=0
shrinkage=1


Tree=2
num_leaves=31
num_cat=0
split_feature=50 101 56 152 107 34 203 254 223 5 4 203 34 9 9 4 157 254 9 56 9 4 203 9 9 23 254 4 254 106
split_gain=74171.6 9469.08 6730.67 3336.28 1939.28 1574.52 1029.94 978.397 576.951 563.073 553.72 525.824 506.773 495.81 453.996 442.562 431.194 407.556 370.222 365.861 421.481 341.486 332.065 294.422 245.821 222.723 198.307 197.604 191.613 190.616
threshold=1.0000000180025095e-35 1.0000000180025095e-35 618.50000000000011 1.0000000180025095e-35 2164.5000000000005 51.570241183477158 1.0000000180025095e-35 1.0000000180025095e-35 413.92286189898408 1064.5000000000002 2622.6920000000005 1.0000000180025095e-35 63.951678914946676 35.641004251725668 41.044982099396002 572.72750000000008 997.20700000000011 1.0000000180025095e-35 45.728913840470199 1565.5000000000002 35.138087076642492 1514.3240000000003 1.0000000180025095e-35 52.674630801549249 50.487404992144455 -2829.4077148674983 1.0000000180025095e-35 1332.5195000000001 1.0000000180025095e-35 775.7795000000001
decision_type=2 2 2 2 2 2 2 2 2 2 2 2 2 2 2 2 2 2 2 2 2 2 2 2 2 2 2 2 2 2
left_child=-1 9 6 19 5 7 -3 21 14 -2 15 -7 17 -11 -8 -9 -13 25 -19 -4 -21 -5 -17 26 -24 -6 -10 -28 -18 -16
right_child=1 2 3 4 12 11 8 10 23 13 -12 16 -14 -15 29 22 28 18 -20 20 -22 -23 24 -25 -26 -27 27 -29 -30 -31
leaf_value=-2.0396179011458742 -1.8900496784751541 -1.6148589682427532 -1.3998069133246074 -1.044916547327863 0.1159744961177207 -1.3606215148771481 -0.65213923525023176 -0.5518134898846816 -1.1964322058363497 -0.9010947957266926 0.27598364095362271 -0.71784455831726135 -0.33127559768299963 -1.5673630017781899 -1.207419140114554 -0.98343505489076632 -1.0602144569405498 0.34700292670733446 0.0054776404987526561 -0.34809065961905394 -1.1518991391218045 -0.37332339018616179 -0.0042251830372606047 -0.87192328356304705 -0.31305227837134808 -0.52228098841933313 -0.59682574596987115 -0.13847832959315198 -0.41166297055128964 -0.92540248784974377
leaf_weight=52158.686911165714 3446.9131870269775 2006.5907440185547 2337.9253438711166 1591.0914305448532 823.31165313720703 806.03211671113968 2789.1333808004856 2774.2143054008484 432.86208575963974 1577.7591210305691 3054.4292047023773 8453.0788053274155 3992.0592651367188 3823.8026656210423 6688.9311719238758 425.40429562330246 471.05056384205818 5125.0756949782372 8337.9385536313057 1012.6019427478313 1833.5386174023151 1444.4418203830719 9750.4770430624485 5274.0124921798706 3503.5690843164921 1627.5023465156555 4143.6958425939083 1216.8185197412968 13843.346491843462 3734.9221173524857
leaf_count=153758 10161 5915 6892 4690 2427 2377 8222 8178 1276 4651 9004 24918 11768 11272 19718 1254 1389 15108 24579 2985 5405 4258 28743 15547 10328 4797 12215 3587 40806 11010
internal_value=-1.06254 -0.583762 -0.493865 -0.334223 -0.273569 -0.386168 -0.926311 -0.197219 -0.869408 -1.57426 -0.115041 -0.566861 -0.0127055 -1.37275 -1.01049 -0.18763 -0.53876 0.0672094 0.135489 -1.10669 -0.86592 -0.725343 -0.113773 -0.700978 -0.0858604 -0.307869 -0.545357 -0.492782 -0.433005 -1.10637
internal_weight=0 106343 97494.1 71207.1 66023 46117.1 26287 22543.6 24280.4 8848.47 19508.1 23573.5 19905.9 5401.56 13213 16453.7 22767.5 15913.8 13463 5184.07 2846.14 3035.53 13679.5 11067.4 13254 2450.81 5793.38 5360.51 14314.4 10423.9
internal_count=467238 313480 287396 209906 194624 135945 77490 66455 71575 26084 57507 69490 58679 15923 38950 48503 67113 46911 39687 15282 8390 8948 40325 32625 39071 7224 17078 15802 42195 30728
is_linear=0
shrinkage=1


Tree=3
num_leaves=31
num_cat=0
split_feature=50 101 101 9 9 9 9 152 152 152 9 111 9 254 111 111 254 111 34 203 203 111 111 111 9 85 5 111 152 60
split_gain=173652 2760.54 2551.8 783.656 710.346 654.779 555.075 510.043 489.197 313.499 295.052 317.068 283.408 257.424 192.803 156.675 155.578 150.597 135.33 130.836 130.153 129.201 114.409 113.334 110.529 105.806 105.557 100.444 89.2623 85.9667
threshold=1.0000000180025095e-35 1.0000000180025095e-35 1.0000000180025095e-35 49.928062123672312 35.641004251725668 62.081015743035657 40.190465282293296 1.0000000180025095e-35 1.0000000180025095e-35 1.0000000180025095e-35 51.178492694142058 45.42598589075039 50.487404992144455 1.0000000180025095e-35 40.354128982506161 51.871915054514311 1.0000000180025095e-35 59.304329932153571 46.895733298317204 1.0000000180025095e-35 1.0000000180025095e-35 56.374318092753192 59.47049817688378 46.424280049721467 45.429855325588413 45.604330267806134 2203.5000000000005 49.392108437031474 1.0000000180025095e-35 51.33520791577174
decision_type=2 2 2 2 2 2 2 2 2 2 2 2 2 2 2 2 2 2 2 2 2 2 2 2 2 2 2 2 2 2
left_child=2 6 4 15 14 7 -2 18 10 -7 11 -6 22 -13 28 24 -9 29 -3 -11 -16 23 27 -8 -4 -20 -21 -10 -1 -5
right_child=1 5 3 17 8 9 21 16 12 19 -12 13 -14 -15 20 -17 -18 -19 25 26 -22 -23 -24 -25 -26 -27 -28 -29 -30 -31
leaf_value=0.35958063819046493 -1.6564189549079735 -1.7829613374803515 -0.545636446745559 0.61122712952871194 0.69781065879912352 -0.94185951745743868 -0.65682562180903692 -1.8395349319857615 0.22143040670748015 -1.1107762243116122 0.71788054498702403 0.47415337263905921 0.43861879437559526 0.018656708383052001 0.046462595125982276 -1.1543911954463675 -1.9887287049842044 -0.062860307605163479 -0.99678462879023855 -1.8280486891826584 -0.88844335462030255 -1.2684781371172105 -0.89184718134256569 -1.1047590514231338 -0.10749518203018771 -1.5706974791324191 -1.6741840546172988 -0.31541307641347271 -0.24138742692911819 0.19352392225337867
leaf_weight=4949.8660700321198 3041.9346289634705 3658.591719865799 1983.8242812156677 607.6599588394165 5916.4008448123932 474.23181629180908 825.43823051452637 7895.6275141239166 949.21984171867371 301.50956344604492 14161.536493301392 7752.9855885505676 3739.6264305114746 1477.1214990615845 2114.5651726722717 322.69533276557922 60903.425981044769 2295.274911403656 389.55140948295593 12823.104098320007 160.1892728805542 2957.214373588562 149.92921662330627 1789.221981048584 811.20672011375427 1831.5856788158417 6835.5115518569946 550.73335957527161 260.1420841217041 2604.7321162223816
leaf_count=14954 9191 11054 5994 1836 17876 1433 2494 23856 2868 911 42788 23425 11299 4463 6389 975 184017 6935 1177 38744 484 8935 453 5406 2451 5534 20653 1664 786 7870
internal_value=-1.1127 -1.85495 0.401584 -0.0940189 0.502925 -1.90405 -1.31286 -1.94745 0.563196 -1.74543 0.614114 0.517095 0.286303 0.401259 0.223522 -0.494644 -1.97161 0.132763 -1.66475 -1.76452 -0.0193739 -1.12529 -0.0589353 -0.963348 -0.418474 -1.47004 -1.77455 0.0243192 0.329574 0.272537
internal_weight=0 103727 50807.7 8625.39 42182.3 95113.1 8613.81 74678.8 34697.6 20434.4 29308 15146.5 5389.51 9230.11 7484.76 3117.73 68799.1 5507.67 5879.73 19960.1 2274.75 5571.87 1649.88 2614.66 2795.03 2221.14 19658.6 1499.95 5210.01 3212.39
internal_count=466915 313405 153510 26061 127449 287379 26026 225638 104836 61741 88552 45764 16284 27888 22613 9420 207873 16641 17765 60308 6873 16835 4985 7900 8445 6711 59397 4532 15740 9706
is_linear=0
shrinkage=1


Tree=4
num_leaves=31
num_cat=0
split_feature=50 5 101 152 55 107 203 4 254 9 208 18 34 9 9 152 152 152 101 4 157 101 254 101 157 9 9 254 254 203
split_gain=20147.6 9233.32 2200.92 2077.13 1679.47 1298.16 1023.73 640.706 614.415 546.922 472.85 441.168 479.725 408.813 356.42 337.32 326.574 260.805 260.19 237.962 230.153 220.453 201.813 196.779 195.548 177.813 169.972 160.557 152.76 146.467
threshold=1.0000000180025095e-35 938.50000000000011 1.0000000180025095e-35 1.0000000180025095e-35 2321.8175000000006 341.50000000000006 1.0000000180025095e-35 1657.8765000000001 1.0000000180025095e-35 43.309296809639925 1036.9995000000001 1670.1642057414192 48.964589775949101 44.390522464179298 42.846644290110383 1.0000000180025095e-35 1.0000000180025095e-35 1.0000000180025095e-35 1.0000000180025095e-35 615.62700000000007 1129.9315000000004 1.0000000180025095e-35 1.0000000180025095e-35 1.0000000180025095e-35 1688.7440000000001 44.390522464179298 48.822699186484584 1.0000000180025095e-35 1.0000000180025095e-35 1.0000000180025095e-35
decision_type=2 2 2 2 2 2 2 2 2 2 2 2 2 2 2 2 2 2 2 2 2 2 2 2 2 2 2 2 2 2
left_child=2 5 9 7 8 19 -7 -3 -5 16 25 26 18 -4 22 -11 27 -12 -13 -2 -14 -16 -6 -19 -23 -8 -10 -1 -25 -21
right_child=1 3 13 4 14 6 10 -9 11 15 17 12 20 -15 21 -17 -18 23 -20 29 -22 24 -24 28 -26 -27 -28 -29 -30 -31
leaf_value=-1.6484031067612488 -0.10541192638202923 -0.25379925384082358 -0.7659201752845195 -0.62207003458079013 -1.3257096986277923 -0.12473034475824063 -0.75541418273447891 -0.8461428869310933 -1.6119715029912383 -1.8679586306961977 -0.12649900684586457 -0.14560616146258254 -0.7713542035002976 -1.2919014011057433 -0.65728758531114584 -1.5740000954129072 -1.0245428661200757 -0.089896772344696174 -1.2345251242503097 0.09494845637983973 -1.0247497186496324 -1.1143799454060299 -1.7172668576127073 -0.43279027726467967 -1.4003094134416156 -0.49137231095274181 -1.2233331690909319 -1.2456772176189475 -0.90570569637276144 -0.45543019225016901
leaf_weight=12925.39513361454 6974.4547977149487 2803.7893581390381 1896.6776790618896 3166.5858026742935 1868.4774755239487 3730.7926469147205 3383.9029623270035 5236.3827667236328 1708.9770617485046 22263.343012720346 512.63176947832108 224.90557396411896 6230.6564340591431 6689.2868614196777 487.93020439147949 4733.6286993920803 994.62947645783424 327.15037441253662 9015.2477073669434 544.59127187728882 8439.6095308065414 3022.1017196774483 4454.2536468505859 728.428217202425 11469.368207156658 10355.136361181736 3295.2253293991089 1072.0519126057625 10960.686972349882 4311.9282855987549
leaf_count=39232 21171 8509 5757 9612 5671 11324 10271 15894 5188 67576 1556 683 18912 20304 1481 14368 3019 993 27364 1653 25616 9173 13520 2211 34813 31431 10002 3254 33269 13088
internal_value=-1.12162 -0.866647 -1.63704 -1.11342 -1.18479 -0.504277 -0.614909 -0.639579 -1.04026 -1.73137 -0.684528 -1.08605 -1.02954 -1.17571 -1.40246 -1.81642 -1.57822 -0.825026 -1.20802 -0.223757 -0.917129 -1.31842 -1.60155 -0.854827 -1.34068 -0.556405 -1.35606 -1.61756 -0.876235 -0.393713
internal_weight=0 103253 50575 61423.5 53383.3 41829.7 29998.7 8040.17 32081.2 41989 26267.9 28914.6 23910.4 8585.96 21302.1 26997 14992.1 12528.9 9240.15 11831 14670.3 14979.4 6322.73 12016.3 14491.5 13739 5004.2 13997.4 11689.1 4856.52
internal_count=466915 313405 153510 186438 162035 126967 91055 24403 97377 127449 79731 87765 72575 26061 64658 81944 45505 38029 28047 35912 44528 45467 19191 36473 43986 41702 15190 42486 35480 14741
is_linear=0
shrinkage=1


Tree=5
num_leaves=31
num_cat=0
split_feature=50 101 56 152 34 4 254 203 5 9 4 148 259 4 203 9 254 152 254 208 157 254 9 192 254 254 23 55 259 95
split_gain=73835.5 9410.21 6995.7 3028.84 1965.28 1767.37 1361.31 1313.08 1009.61 948.755 764.393 734.383 598.818 485.724 429.82 362.484 356.698 274.488 264.912 237.947 224.703 208.091 207.293 195.436 195.111 175.67 172.433 168.558 157.115 149.552
threshold=1.0000000180025095e-35 1.0000000180025095e-35 763.50000000000011 1.0000000180025095e-35 55.632379900132541 2224.6080000000006 1.0000000180025095e-35 1.0000000180025095e-35 2796.5000000000005 44.235758853703437 2846.8285000000005 13805.790711724118 1402.2895000000003 649.78550000000007 1.0000000180025095e-35 44.550728670482236 1.0000000180025095e-35 1.0000000180025095e-35 1.0000000180025095e-35 3827.2960000000007 1274.5340000000003 1.0000000180025095e-35 56.807940364267161 10469.181059061264 1.0000000180025095e-35 1.0000000180025095e-35 -264.03285449882964 874.66700000000003 1248.7775000000001 47196.081219522486
decision_type=2 2 2 2 2 2 2 2 2 2 2 2 2 2 2 2 2 2 2 2 2 2 2 2 2 2 2 2 2 2
left_child=-1 8 7 10 5 6 -5 -3 -2 13 -4 23 25 -9 -8 -16 -14 -13 -7 -18 -17 -15 -12 -11 -19 -6 -20 -25 -26 -27
right_child=1 2 3 4 12 18 14 9 -10 11 22 17 16 21 15 20 19 24 26 -21 -22 -23 -24 27 28 29 -28 -29 -30 -31
leaf_value=-2.0393970831926298 -1.7362784425097457 -1.5634012978756648 -1.3533099369581758 -0.90712111697464626 -1.4662471338741156 -0.10439106367438 -1.0088900273449259 -0.80925192923946354 -0.86728513206973135 -0.61656353774106276 -0.36395631331908462 -1.8097165835847182 -1.0823633333554923 -0.9009883150031045 0.023584630653404437 -0.39118549017987181 -0.39047609383174775 -1.428742785745545 0.38020635010374115 -0.095042274944990512 -0.12468557575742023 -0.23814969001425268 -1.4051365519783938 -1.2540381257074065 -0.79884725182914518 -0.52253615124773134 0.1233281608377601 -0.96037055219911249 -0.55387294858525615 -0.77676826903268315
leaf_weight=52074.557040005922 7186.246729850769 2545.0075159072876 3195.445637345314 2881.4879695177078 265.59442639350891 2386.7672805786133 598.74213910102844 3424.520264595747 1642.5524444580078 701.83682245016098 1384.7372486293316 243.25907135009766 615.70481872558594 534.62646198272705 7593.4432719051838 6088.6111083030701 9269.1192812919617 393.85138639807701 5801.8500947952271 3862.1335644721985 6586.3004436194897 4151.159441947937 221.85651662945747 6376.8542872071266 7466.4290283024311 4947.6701485514641 4754.6510572433472 2818.323825776577 4031.7505397498608 4346.5556128621101
leaf_count=153510 21184 7502 9420 8496 782 7035 1765 10095 4842 2069 4082 717 1815 1576 22384 17948 27324 1161 17103 11385 19414 12237 654 18798 22010 14585 14016 8308 11885 12813
internal_value=-1.06254 -0.586 -0.496469 -0.306212 -0.245049 -0.100804 -0.262829 -0.873639 -1.57461 -0.815401 -1.07041 -0.923042 -0.472132 -0.522988 -0.173861 -0.149193 -0.338464 -0.758165 0.196482 -0.303584 -0.252703 -0.313776 -0.507734 -1.12521 -0.736655 -0.664346 0.264508 -1.16403 -0.712949 -0.641431
internal_weight=0 106317 97488.3 64800.7 59998.6 36691.9 23748.6 32687.6 8828.8 30142.6 4802.04 22032.3 23306.8 8110.31 20867.1 20268.4 13747 12135.3 12943.3 13131.3 12674.9 4685.79 1606.59 9897.01 11892 9559.82 10556.5 9195.18 11498.2 9294.23
internal_count=466915 313405 287379 191021 176865 108161 70007 96358 26026 88856 14156 64948 68704 23908 61511 59746 40524 35773 38154 38709 37362 13813 4736 29175 35056 28180 31119 27106 33895 27398
is_linear=0
shrinkage=1


Tree=6
num_leaves=31
num_cat=0
split_feature=50 101 101 9 9 9 152 9 152 9 254 60 9 60 152 254 4 111 254 162 203 34 60 111 4 213 60 254 60 162
split_gain=174202 2803.55 2544.36 778.17 652.702 609.349 644.464 530.055 634.766 499.515 281.898 279.243 298.98 274.896 270.38 258.724 209.83 135.08 108.069 107.992 103.719 101.491 98.2774 95.0532 83.864 82.7147 79.4938 76.2172 76.0679 71.8342
threshold=1.0000000180025095e-35 1.0000000180025095e-35 1.0000000180025095e-35 51.991288923755882 47.010715314569275 50.900176904273216 1.0000000180025095e-35 59.144897871604961 1.0000000180025095e-35 39.12394699049117 1.0000000180025095e-35 49.54398521126577 54.363984643983947 53.822055442117268 1.0000000180025095e-35 1.0000000180025095e-35 2745.7345 46.994029809257846 1.0000000180025095e-35 59.643503614972651 1.0000000180025095e-35 47.032264485151892 55.950383004791334 52.006871347108891 2714.7295000000008 66.970422522531479 50.234584899646499 1.0000000180025095e-35 48.842161143252191 64.459283581287266
decision_type=2 2 2 2 2 2 2 2 2 2 2 2 2 2 2 2 2 2 2 2 2 2 2 2 2 2 2 2 2 2
left_child=2 4 7 13 23 14 26 8 9 18 -8 -6 -13 28 -3 19 20 -5 24 -11 -12 -10 -23 -2 -1 -17 -7 -16 -4 -24
right_child=1 5 3 17 11 6 10 -9 21 15 16 12 -14 -15 27 25 -18 -19 -20 -21 -22 22 29 -25 -26 -27 -28 -29 -30 -31
leaf_value=0.42875481298769991 -1.4822353816499132 -1.7551712005269917 -0.22766156770565205 0.55844529757715478 -0.55724838171558866 -0.86272096901055373 -1.4668007801187792 0.71882984149933171 -0.1448086599148285 0.68761283590884692 -1.4714643327481252 -1.6477206863834155 -0.94466528925766691 -1.0370122986585899 -1.9126321018755617 0.39038702439381789 -1.7443796124810811 0.093982451088658436 -0.091469254451654658 0.4954493426311577 -1.9103188982650645 0.38450864933333917 0.039432402969487024 -1.8263538896304794 0.23959791143012965 -0.1711965156161811 -1.3593492097914732 -2.031422644916955 -0.60500722580570121 -0.88658169229259221
leaf_weight=4926.0350248813629 3767.089234828949 4509.9023633003235 2232.0518646240234 733.42879033088684 1031.963650226593 416.58698797225952 1845.1462752819061 9053.0157241821289 1555.8874940872192 12137.324184417725 547.14500331878662 882.0340039730072 1924.9194858074188 649.36231565475464 6389.7164878845215 3384.8307521343231 10894.476047277451 4281.4243457317352 622.55376386642456 3852.8304722309113 34237.165015697479 1159.7174768447876 748.65325498580933 1020.0489082336426 4471.3995790481567 284.30286693572998 1424.1620926856995 34912.712985992432 702.3174467086792 94.32632851600647
leaf_count=14882 11382 13628 6744 2216 3118 1257 5575 27353 4701 36672 1653 2665 5816 1962 19306 10227 32917 12936 1881 11641 103447 3504 2262 3082 13510 859 4303 105486 2122 285
internal_value=-1.1127 -1.85513 0.403491 -0.0923986 -1.30923 -1.9046 -1.82752 0.504315 0.445888 0.49374 -1.85001 -1.00206 -1.16559 -0.448264 -1.98766 0.586358 -1.86549 0.161911 0.312022 0.641311 -1.90342 0.0467907 0.195644 -1.55556 0.338752 0.346873 -1.24696 -2.01305 -0.317976 -0.0641851
internal_weight=0 103803 50889.5 8598.58 8626.06 95177 49364.7 42290.9 33237.9 29679.3 47523.9 3838.92 2806.95 3583.73 45812.3 19659.3 45678.8 5014.85 10020 15990.2 34784.3 3558.58 2002.7 4787.14 9397.43 3669.13 1840.75 41302.4 2934.37 842.98
internal_count=467392 313635 153757 25980 26063 287572 149152 127777 100424 89672 143592 11599 8481 10828 138420 59399 138017 15152 30273 48313 105100 10752 6051 14464 28392 11086 5560 124792 8866 2547
is_linear=0
shrinkage=1


Tree=7
num_leaves=31
num_cat=0
split_feature=50 5 4 101 203 101 107 56 152 9 203 9 152 221 34 254 254 209 203 4 34 259 254 111 228 101 208 78 128 152
split_gain=20201.9 8796.93 3021.35 2201.57 1665.74 1204.62 851.141 644.701 620.177 589.908 573.816 472.805 541.612 418.406 414.962 472.524 316.323 337.632 287.49 321.112 254.792 239.432 234.533 186.297 182.135 180.817 156.057 149.602 147.89 135.141
threshold=1.0000000180025095e-35 708.50000000000011 1673.5100000000002 1.0000000180025095e-35 1.0000000180025095e-35 1.0000000180025095e-35 403.50000000000006 2701.5000000000005 1.0000000180025095e-35 53.106119580519596 1.0000000180025095e-35 55.628778332057237 1.0000000180025095e-35 1658.2679761721126 47.032264485151892 1.0000000180025095e-35 1.0000000180025095e-35 1542.5000000000002 1.0000000180025095e-35 615.62700000000007 49.384314648768907 1169.6845000000001 1.0000000180025095e-35 50.785189369565295 -0.027660327173767426 1.0000000180025095e-35 1689.4475000000002 13835.420000000002 10472.480000000001 1.0000000180025095e-35
decision_type=2 2 2 2 2 2 2 2 2 2 2 2 2 2 2 2 2 2 2 2 2 2 2 2 2 2 2 2 2 2
left_child=3 6 4 11 -3 -4 18 14 -6 23 -8 12 22 -10 15 -7 -15 20 -2 27 -18 -12 -1 -5 -9 -19 -16 28 -20 -17
right_child=1 2 5 9 8 7 10 24 13 -11 21 -13 -14 16 26 29 17 25 19 -21 -22 -23 -24 -25 -26 -27 -28 -29 -30 -31
leaf_value=-1.7454001502427428 0.15646033815550653 -0.2670482542166589 -0.72071157072911007 -0.98817884869100037 -0.20732305260731343 -0.9732944786502129 -0.084493315639969646 -1.7152159710119199 -1.252838891638276 -1.4140293082800692 -0.54650000096609952 -1.8956373769432799 -1.2549588992045151 -0.4331812016331642 -0.96657623863693165 -0.84003248995098034 -1.0023156146357373 -0.17152618679884701 -0.83273245574827293 -0.47955078830069808 -0.71638169988838574 -0.80988463599046212 -1.4662692918259306 -0.41066464998954644 -1.4244556268467643 -1.1050386174671263 -1.1849730634142666 -0.43530085346617753 -0.068636060954297307 -1.5495944285231236
leaf_weight=23125.375536441803 1496.5952325165272 4410.5876287221909 3864.4790598154068 3163.4386896193027 1148.1561006605625 2138.3778963685036 1977.4235968291759 2722.9586410522461 4082.6015637814999 4717.4888153076172 8026.2185789346695 12596.763784408569 2914.3692684173584 1334.9835443794727 5506.2769656777382 281.02732920646667 5206.4026252925396 212.49522867798805 264.5313655436039 5990.8377132713795 7763.3059788644314 6055.4090226888657 3460.6048655509949 678.35112819075584 10317.688241899014 8810.9847373962402 8062.6414808630943 1705.5969059169292 5968.4529529511929 5980.9535706043243
leaf_count=70192 4544 13387 11729 9602 3485 6492 6002 8265 12392 14319 24362 38235 8846 4052 16713 853 15803 645 803 18184 23564 18380 10504 2059 31317 26744 24472 5177 18116 18154
internal_value=-1.12162 -0.868536 -1.06169 -1.63945 -0.839014 -1.25055 -0.427781 -1.30903 -0.927347 -1.17712 -0.588926 -1.73346 -1.6642 -0.957507 -1.20448 -1.37915 -0.905822 -0.934511 -0.260024 -0.304772 -0.831164 -0.659761 -1.70907 -0.886206 -1.48517 -1.08306 -1.09635 -0.172875 -0.101065 -1.51775
internal_weight=0 103329 71843.9 50656.4 32969.5 38874.4 31485.1 35009.9 28558.9 8559.28 16059.1 42097.1 29500.3 27410.8 21969.3 8400.36 23328.2 21993.2 15426 13929.4 12969.7 14081.6 26586 3841.79 13040.6 9023.48 13568.9 7938.58 6232.98 6261.98
internal_count=467392 313635 218067 153757 100072 117995 95568 106266 86685 25980 48744 127777 89542 83200 66684 25499 70808 66756 46824 42280 39367 42742 80696 11661 39582 27389 41185 24096 18919 19007
is_linear=0
shrinkage=1


Tree=8
num_leaves=31
num_cat=0
split_feature=50 101 56 152 203 34 239 254 9 4 9 157 5 4 9 152 254 4 106 203 5 4 208 157 34 203 5 21 106 162
split_gain=74087.3 9402.82 7160.71 2626.72 1702.84 1678.96 1218.73 1066.74 1077.8 994.394 715.926 648.428 599.533 560.407 490.122 463.063 405.441 405.024 312.786 248.902 244.98 244.878 244.611 241.717 184.627 174.136 169.76 168.905 149.194 148.354
threshold=1.0000000180025095e-35 1.0000000180025095e-35 956.50000000000011 1.0000000180025095e-35 1.0000000180025095e-35 42.64312607117995 13834.628500000219 1.0000000180025095e-35 55.054501283326665 2563.5000000000005 42.689527691390204 3531.1880000000006 1700.5000000000002 1755.4215000000002 39.477592830337983 1.0000000180025095e-35 1.0000000180025095e-35 1180.3335000000002 874.20700000000011 1.0000000180025095e-35 4598.5000000000009 1191.3515000000002 901.87000000000012 367.26550000000003 56.804963771650016 1.0000000180025095e-35 584.50000000000011 1960.7010259271519 1036.3010000000002 43.791606798468301
decision_type=2 2 2 2 2 2 2 2 2 2 2 2 2 2 2 2 2 2 2 2 2 2 2 2 2 2 2 2 2 2
left_child=-1 9 4 13 -3 12 14 -7 17 -2 21 22 16 -4 26 -12 -5 -9 -17 -14 -11 -8 -10 -16 -15 -24 -6 -18 -25 -19
right_child=1 2 3 5 6 7 10 8 11 20 15 -13 19 24 23 18 27 29 -20 -21 -22 -23 25 28 -26 -27 -28 -29 -30 -31
leaf_value=-2.0389082081768355 -1.7948494416560461 -1.4998999746524753 -1.4485128358764645 -0.7288814591706223 -0.6891234891314264 -0.93720519252888779 -0.45537217771849781 -0.26318639024194224 -0.72654882782338914 -1.2409672190805545 -1.7497160609283755 -0.094907884297633305 -0.14864809686171376 -0.59811616559495406 -1.2826831292661043 -0.80300825572101076 0.16051229943655332 -0.06709116414632621 -0.53945911180663964 0.34796563664373581 -0.54677184393394151 0.0096683737578795448 -1.4416454648509553 -1.0735559119854958 -1.353449502004239 -0.42428808918160899 0.059010356628452998 -0.21697387687528702 -0.79230775983277457 0.19154301183388078
leaf_weight=52158.347116470337 6124.4572639465332 3323.2379512786865 1773.3618776798248 997.34951567649841 2255.5333441495895 2532.319216966629 2691.4955181479454 5848.6680636107922 3844.0712133944035 2039.7910766601562 410.07504683732986 5015.3267369270325 1184.9332218170166 2117.8134787082672 3623.9999476075172 9275.2637826502323 2380.717204272747 4033.4463615119457 8752.8076336979866 6806.3110179901123 677.10345077514648 1954.6438857316971 170.56906074285507 5250.6040207445621 381.97311186790466 12347.62977284193 350.42472341656685 2360.7028034329414 2943.500012665987 4926.9808292686939
leaf_count=153757 18054 9796 5228 2940 6649 7465 7934 17240 11333 6013 1209 14784 3493 6243 10683 27342 7018 11890 25802 20064 1996 5762 503 15478 1126 36397 1033 6959 8677 14524
internal_value=-1.06254 -0.583995 -0.494499 -0.264631 -0.813825 -0.203207 -0.753038 -0.30975 -0.265841 -1.57148 -0.610551 -0.409483 0.0972467 -1.01855 -0.981075 -0.698954 -0.14934 -0.058489 -0.675053 0.274328 -1.06796 -0.259728 -0.505905 -1.06763 -0.713533 -0.43815 -0.588521 -0.0274341 -0.972525 0.0751214
internal_weight=0 106395 97553.8 56722.2 40831.6 52449 37508.3 38719 36186.7 8841.35 23084.3 21377.6 13730 4273.15 14424.1 18438.1 5738.77 14809.1 18028.1 7991.24 2716.89 4646.14 16362.3 11818.1 2499.79 12518.2 2605.96 4741.42 8194.1 8960.43
internal_count=467392 313635 287572 167207 120365 154610 110569 114136 106671 26063 68049 63017 40474 12597 42520 54353 16917 43654 53144 23557 8009 13696 48233 34838 7369 36900 7682 13977 24155 26414
is_linear=0
shrinkage=1


Tree=9
num_leaves=31
num_cat=0
split_feature=50 101 101 9 9 34 152 152 9 152 152 34 254 111 4 254 136 85 254 9 162 254 9 203 60 111 162 34 85 9
split_gain=174031 2777.9 2525.93 668.641 655.836 584.455 569.944 380.088 362.228 330.364 308.923 265.088 254.917 236.339 187.874 150.289 105.452 116.426 104.659 104.298 171.502 101.654 124.671 97.7313 97.1945 120.857 91.7495 229.632 145.734 84.0935
threshold=1.0000000180025095e-35 1.0000000180025095e-35 1.0000000180025095e-35 53.937321569899559 45.285242594059547 44.881863896959999 1.0000000180025095e-35 1.0000000180025095e-35 32.909643142311815 1.0000000180025095e-35 1.0000000180025095e-35 50.889181051212468 1.0000000180025095e-35 41.39469772539119 4017.1610000000005 1.0000000180025095e-35 49.643356884908485 51.6973472814743 1.0000000180025095e-35 41.386496977662176 50.075524991572344 1.0000000180025095e-35 44.993022059686474 1.0000000180025095e-35 34.635694247394291 43.14772570262344 47.136027700434163 61.007962375930425 57.671978676477984 37.914483695152022
decision_type=2 2 2 2 2 2 2 2 2 2 2 2 2 2 2 2 2 2 2 2 2 2 2 2 2 2 2 2 2 2
left_child=2 8 5 9 24 7 -5 15 -2 19 21 13 -8 -10 23 -1 -13 -18 -11 -3 -21 22 -7 -14 -4 29 -6 28 -28 -26
right_child=1 3 4 6 26 10 12 -9 11 18 -12 16 14 -15 -16 -17 17 -19 -20 20 -22 -23 -24 -25 25 -27 27 -29 -30 -31
leaf_value=0.43566957127320527 -1.7531679197862158 -1.8624087160732083 -0.16026703529272324 -1.1708524970116954 0.26512847858622468 0.50523885049565131 -1.3883854825279958 -0.15810152856933468 -0.88415939651422892 -1.8879302899750878 0.36130100490862715 -0.42263160989915571 -1.416513745567924 -1.5004317998146741 -1.6781551828065271 0.10073112261357164 -0.58722454876650543 -1.1444889448818134 -2.0200593179516755 -1.1742947644551305 -1.7634077867417641 0.53507589933792987 0.73632530548354747 -1.8800735370552912 -0.838847204608967 -1.087788580007079 -0.01950041930142743 0.22973118752192812 -0.50529614961574043 -0.27807067313783984
leaf_weight=14030.360483884811 1525.4314789772034 2757.4552628993988 435.87938618659973 1360.4745311737061 1707.8037054538727 2870.166125535965 1269.9317815303802 1305.675142288208 767.84911012649536 6982.4722990989685 4451.8720235824585 292.90826773643494 461.36925864219666 3282.5581986904144 5806.8629403114319 1481.0894322395325 447.80208897590637 2303.2176368236542 42385.627409219742 731.11233997344971 1524.7768774032593 5525.5429167747498 12512.318649530411 31952.532110214233 449.12554979324341 523.59386396408081 1607.188059091568 2250.9252550601959 1002.8388283252716 660.94649624824524
leaf_count=42390 4609 8331 1317 4111 5160 8672 3837 3945 2320 21097 13451 885 1394 9918 17545 4475 1353 6959 128067 2209 4607 16695 37805 96542 1357 1582 4856 6801 3030 1997
internal_value=-1.1127 -1.85471 0.403727 -1.90391 -0.0889214 0.504627 -1.80723 0.360071 -1.31109 -1.97653 0.600488 -1.21603 -1.82916 -1.3836 -1.8438 0.403688 -0.993046 -1.05378 -2.00137 -1.73195 -1.57248 0.651417 0.693208 -1.87348 -0.579815 -0.691755 0.0657391 -0.00431266 -0.206156 -0.504956
internal_weight=0 103852 50815.3 95232.6 8638.3 42177 40851.2 16817.1 8619.77 54381.4 25359.9 7094.34 39490.7 4050.41 38220.8 15511.4 3043.93 2751.02 49368.1 5013.34 2255.89 20908 15382.5 32413.9 2069.55 1633.67 6568.76 4860.95 2610.03 1110.07
internal_count=467317 313784 153533 287740 26100 127433 123429 50810 26044 164311 76623 21435 119318 12238 115481 46865 9197 8312 149164 15147 6816 63172 46477 97936 6253 4936 19847 14687 7886 3354
is_linear=0
shrinkage=1


Tree=10
num_leaves=31
num_cat=0
split_feature=50 4 4 101 203 218 101 56 273 203 9 9 152 152 152 9 101 9 158 5 254 254 152 254 56 254 152 67 111 44
split_gain=20153.8 7526.74 2927.34 2185.52 1656.94 1279.77 1216.15 959.918 891.647 671.089 586.923 545.055 533.305 475.063 400.868 561.552 344.145 451.596 309.551 306.624 280.938 275.03 235.397 224.006 214.686 213.355 210.848 189.304 170.112 156.801
threshold=1.0000000180025095e-35 782.11950000000013 1755.4215000000002 1.0000000180025095e-35 1.0000000180025095e-35 416.58335499707886 1.0000000180025095e-35 916.50000000000011 595.9002247237396 1.0000000180025095e-35 49.251272571426384 59.30890781091469 1.0000000180025095e-35 1.0000000180025095e-35 1.0000000180025095e-35 42.210080648785954 1.0000000180025095e-35 51.722769813515704 2319.5000000000005 3964.5000000000005 1.0000000180025095e-35 1.0000000180025095e-35 1.0000000180025095e-35 1.0000000180025095e-35 1004.5000000000001 1.0000000180025095e-35 1.0000000180025095e-35 1721.501090985468 46.424280049721467 10484.315423427246
decision_type=2 2 2 2 2 2 2 2 2 2 2 2 2 2 2 2 2 2 2 2 2 2 2 2 2 2 2 2 2 2
left_child=3 5 4 10 -3 29 19 -8 -6 -7 13 28 -10 23 -9 25 -14 21 27 -4 -11 -18 -22 -1 -24 -16 -12 -17 -5 -2
right_child=1 2 6 11 8 9 7 14 12 20 26 -13 16 -15 15 18 17 -19 -20 -21 22 -23 24 -25 -26 -27 -28 -29 -30 -31
leaf_value=-1.7000381020581063 -0.65152785173425531 -0.26785052364408024 -0.54675184908882624 -1.1440295051414109 -0.60031830672714148 -0.048545337054935356 -0.92144318833690564 -0.96191645377751611 -0.26433788857307305 -0.12971157178017556 -1.908204532754278 -1.5093089958075776 -0.27679517106905394 -1.1315458905257239 -1.3400177529907293 -1.3297280757475476 -0.67778524294902032 -0.91614384159616802 -1.4259593631880925 -1.2202974069940391 0.018222195077677306 -1.2584611458271986 -0.62045155021426068 -1.3508154799525607 -0.87306903811455039 -1.7157350486957883 -1.6492091674125029 -1.058429461748146 -0.78735889636873457 -0.10544967860435817
leaf_weight=18173.316172510386 557.67233693599701 4680.0678100585938 3119.2364702224731 3045.4928643703461 7175.8900265693665 2080.1946492195129 6349.8684405684471 2453.2081161439419 933.35186424851418 971.89697781205177 16035.956504583359 3169.3721618652344 580.83027017116547 1821.5625283718109 2072.5360991954803 4560.3859139382839 893.48885035514832 10990.333909004927 9517.7916339635849 862.84688949584961 463.21604558825493 9364.8010177612305 9989.7731422781944 2043.2840111255646 5072.3117675185204 5582.3123970031738 3909.6607935428619 5898.7257826328278 2383.9483292102814 9207.3350287675858
leaf_count=55161 1694 14205 9467 9244 21781 6314 19275 7445 2833 2950 48674 9620 1763 5529 6292 13842 2712 33359 28889 2619 1406 28425 30322 6202 15396 16944 11867 17904 7236 27947
internal_value=-1.12162 -0.868768 -1.0346 -1.63908 -0.821185 -0.429727 -1.2174 -1.27475 -0.907684 -0.583788 -1.73315 -1.17978 -1.00458 -1.62067 -1.34932 -1.38371 -1.03623 -1.05699 -1.29547 -0.692697 -0.651279 -1.20788 -0.683929 -1.66474 -0.705523 -1.61401 -1.85744 -1.17672 -0.987423 -0.136636
internal_weight=0 103378 75035.7 50582.6 34618.8 28342.4 40416.9 36434.8 29938.7 18577.4 41983.8 8598.81 22762.8 22038.2 30085 27631.8 21829.5 21248.6 19976.9 3982.08 16497.2 10258.3 15525.3 20216.6 15062.1 7654.85 19945.6 10459.1 5429.44 9765.01
internal_count=467317 313784 227755 153533 105078 86029 122677 110591 90873 56388 127433 26100 69092 66892 91316 83871 66259 64496 60635 12086 50074 31137 47124 61363 45718 23236 60541 31746 16480 29641
is_linear=0
shrinkage=1


Tree=11
num_leaves=31
num_cat=0
split_feature=50 101 4 9 203 203 142 56 5 152 203 5 23 158 254 9 152 152 5 55 165 254 152 254 123 107 152 105 23 30
split_gain=74067.8 9307.02 6272.04 2567.62 2537.71 2066.96 1571.16 936.328 935.268 722.429 672.258 627.063 587.924 583.712 536.038 449.979 434.999 421.906 360.632 328.866 321.292 302.924 295.929 293.705 263.479 242.587 186.422 181.174 179.456 168.995
threshold=1.0000000180025095e-35 1.0000000180025095e-35 994.40600000000006 54.781867900591372 1.0000000180025095e-35 1.0000000180025095e-35 13819.999179749482 2636.5000000000005 1397.5000000000002 1.0000000180025095e-35 1.0000000180025095e-35 1730.5000000000002 -2024.3552188499596 814.50000000000011 1.0000000180025095e-35 58.499780937321681 1.0000000180025095e-35 1.0000000180025095e-35 2272.5000000000005 715.54600000000016 1771.3083600133934 1.0000000180025095e-35 1.0000000180025095e-35 1.0000000180025095e-35 1604.4692002638278 579.50000000000011 1.0000000180025095e-35 1745.325 -172.21697640817726 3397.5000000000005
decision_type=2 2 2 2 2 2 2 2 2 2 2 2 2 2 2 2 2 2 2 2 2 2 2 2 2 2 2 2 2 2
left_child=-1 12 5 4 11 -3 28 10 17 -8 -5 -4 29 -12 -11 19 -10 -6 -14 -16 -18 -19 -15 -22 -24 -23 -9 -13 -7 -2
right_child=1 2 3 7 8 6 9 26 16 14 13 27 18 22 15 -17 20 21 -20 -21 23 25 24 -25 -26 -27 -28 -29 -30 -31
leaf_value=-2.0394992898564239 -1.3142914909968859 -1.6239291930379616 -1.0785129692417317 -1.5314648635200987 -1.2513391518106498 -0.88861208651107437 -1.6990626157541451 -1.1802435043612116 -0.67811128678686683 -1.2463194774336521 -0.8662163135476586 -0.0072517595683869729 -1.782141703639045 -1.5053059678709197 -0.62196402561134345 -0.81153919429755783 0.43234760166857544 -0.7110659149268832 -1.2244538301670105 -0.34065823696990416 -0.34206294724198416 -0.34977149648995454 -0.25833481746760201 0.15993069562618567 -0.56203539034943018 -0.02113681233338105 -0.18059712173719522 -0.55895971228421193 -1.1736139178479803 -0.60136859491797234
leaf_weight=52082.359261959791 658.44620895385742 2960.5725297927856 2657.4311652183533 810.06693887710571 378.53488844633102 3260.0022000074387 593.99301970005035 192.00051403045654 602.85648614168167 1153.3897726535797 5817.1408112049103 799.90449297428131 6071.536563873291 279.5112116932869 7616.7354623675346 4953.0949883460999 4015.4069753885269 973.58936047554016 1433.2475633621216 9146.3125469088554 1305.0817559659481 3319.7055684626102 4187.8086104989052 10898.102720290422 8986.8775185346603 6945.7380376756191 6575.6365785598755 2326.1012901067734 6855.1553291082382 671.67562866210938
leaf_count=153533 1941 8727 7835 2387 1115 9610 1751 566 1778 3400 17148 2358 17898 824 22453 14601 11836 2870 4225 26962 3848 9786 12345 32124 26492 20475 19384 6857 20208 1980
internal_value=-1.06254 -0.58418 -0.49522 -0.299148 -0.117531 -0.822934 -0.752312 -0.530641 0.00526946 -0.610286 -0.639051 -0.721383 -1.56703 -0.601539 -0.582007 -0.546724 0.155978 -0.212946 -1.67564 -0.468477 0.186981 -0.177972 -0.487101 0.106244 -0.465499 -0.127413 -0.208957 -0.417785 -1.08176 -0.954285
internal_weight=0 106446 97610.8 61071.5 34222.5 36539.3 33578.7 26849 28439 23463.5 20081.4 5783.44 8834.91 19271.3 22869.5 21716.1 16821.4 11617.6 7504.78 16763 16218.6 11239 13454.2 12203.2 13174.7 10265.4 6767.64 3126.01 10115.2 1330.12
internal_count=467317 313784 287740 180028 100882 107712 98985 79146 83832 69167 59196 17050 26044 56809 67416 64016 49586 34246 22123 49415 47808 33131 39661 35972 38837 30261 19950 9215 29818 3921
is_linear=0
shrinkage=1


Tree=12
num_leaves=31
num_cat=0
split_feature=50 101 101 9 9 9 34 152 152 152 9 152 254 254 254 4 4 254 111 74 111 9 9 254 9 162 60 111 56 34
split_gain=173600 2803.28 2537.2 669.815 612.125 545.933 539.991 488.602 469.053 374.168 280.582 216.569 158.207 152.508 148.696 141.819 124.449 101.492 97.4519 95.2961 93.6087 85.2335 82.9241 80.9556 80.7163 69.739 78.0636 66.1004 62.2714 60.8242
threshold=1.0000000180025095e-35 1.0000000180025095e-35 1.0000000180025095e-35 59.471398059999991 51.722769813515704 41.553461749914398 49.66750067675121 1.0000000180025095e-35 1.0000000180025095e-35 1.0000000180025095e-35 43.156832711235701 1.0000000180025095e-35 1.0000000180025095e-35 1.0000000180025095e-35 1.0000000180025095e-35 2448.6805000000004 3194.9290000000005 1.0000000180025095e-35 46.563913998994543 151.9690590174869 49.250876024995641 39.65737026929822 44.550728670482236 1.0000000180025095e-35 67.205783617594747 35.179663053695137 47.014869911283434 50.505715215577617 1203.5000000000002 52.528398957229278
decision_type=2 2 2 2 2 2 2 2 2 2 2 2 2 2 2 2 2 2 2 2 2 2 2 2 2 2 2 2 2 2
left_child=2 4 6 8 18 25 7 10 -3 -5 12 22 16 -11 29 -15 -1 27 -2 -6 -14 -9 -8 -24 -21 -4 -27 -12 -18 -10
right_child=1 3 5 9 19 -7 11 21 14 13 17 -13 20 15 -16 -17 28 -19 -20 24 -22 -23 23 -25 -26 26 -28 -29 -30 -31
leaf_value=0.46048583531061604 -1.3645738271989556 -1.6806084593313075 -0.41606067298181726 -1.0315604166066288 -0.65025649935714114 0.017372908680597821 0.42860421650212288 -0.38152690147475443 -1.8912310149973828 -1.2692786976349526 0.76761840944229354 0.40686243732456506 0.14708060870908035 -1.8576192425952978 -1.999080448453006 -1.7024013618999132 -0.025518521201223443 0.35324870878017345 -1.621722595579743 -1.1518359061513275 -0.56668917544040065 0.064237871180680584 0.74593424622036619 0.58483175871103499 -0.61780055984834636 -0.70652600389189169 -1.4976268692830765 0.55946372393071386 0.30133073161573765 -1.6555279587802181
leaf_weight=7780.2852013111115 3043.5887362957001 5666.2708394527435 620.22944569587708 671.14103078842163 905.5332236289978 7209.182165145874 1258.6969840526581 615.93284559249878 6381.4401097297668 554.69873309135437 2722.58078789711 3722.4164221286774 718.21163821220398 15689.313063621521 55367.2931163311 9421.0450193881989 697.03304600715637 1404.6350464820862 2857.2618839740753 1452.9565699100494 246.90330243110657 1412.9091379642487 10085.95968079567 4515.7476089000702 351.48972201347351 618.91310620307922 156.21763801574707 3469.8866891860962 3559.909562587738 1321.5616407394409
leaf_count=23506 9196 17120 1874 2028 2736 21782 3803 1861 19281 1676 8226 11247 2170 47404 167290 28465 2106 4244 8633 4390 746 4269 30474 13644 1062 1870 472 10484 10756 3993
internal_value=-1.1127 -1.85477 0.401468 -1.90425 -1.3084 -0.093444 0.502353 0.397135 -1.95621 -1.76865 0.443251 0.623935 0.35404 -1.78793 -1.98097 -1.79938 0.385274 0.595933 -1.48909 -0.914969 -0.0355216 -0.0710911 0.674882 0.696111 -1.04781 -0.665984 -0.865962 0.650981 0.247812 -1.85079
internal_weight=0 103684 50815.7 95072.8 8610.83 8604.54 42211.1 22628.3 68736.6 26336.2 20599.4 19582.8 13002.3 25665.1 63070.3 25110.4 12037.2 7597.1 5900.85 2709.98 965.115 2028.84 15860.4 14601.7 1804.45 1395.36 775.131 6192.47 4256.94 7703
internal_count=466808 313274 153534 287257 26017 25998 127536 68368 207684 79573 62238 59168 39284 77545 190564 75869 36368 22954 17829 8188 2916 6130 47921 44118 5452 4216 2342 18710 12862 23274
is_linear=0
shrinkage=1


Tree=13
num_leaves=31
num_cat=0
split_feature=50 5 94 101 203 101 4 4 254 107 152 152 9 9 34 34 152 254 9 55 203 259 254 157 254 4 9 101 34 152
split_gain=20144.2 8330.25 2499.62 2191.42 1866.7 1246.2 1075.11 1031.71 619.576 451.366 420.888 416.48 538.758 377.087 351.023 342.249 314.229 272.981 269.454 259.722 253.686 251.81 243.153 234.356 204.729 302.282 190.676 175.706 174.511 171.17
threshold=1.0000000180025095e-35 1465.5000000000002 13825.029247677734 1.0000000180025095e-35 1.0000000180025095e-35 1.0000000180025095e-35 918.7120000000001 2476.0265000000004 1.0000000180025095e-35 469.50000000000006 1.0000000180025095e-35 1.0000000180025095e-35 50.206584504722407 46.29828088592992 47.591072242656672 53.641157966115195 1.0000000180025095e-35 1.0000000180025095e-35 40.362875061099039 566.14650000000017 1.0000000180025095e-35 3025.1985000000004 1.0000000180025095e-35 722.35200000000009 1.0000000180025095e-35 711.24900000000014 56.075844364021286 1.0000000180025095e-35 43.552859481079018 1.0000000180025095e-35
decision_type=2 2 2 2 2 2 2 2 2 2 2 2 2 2 2 2 2 2 2 2 2 2 2 2 2 2 2 2 2 2
left_child=3 2 9 11 -4 -3 16 8 -7 24 -8 12 22 20 -5 29 -6 -18 -12 -19 -9 -15 -1 -20 -2 -26 27 -21 -13 -10
right_child=1 5 4 14 6 7 10 13 15 -11 18 28 -14 21 -16 -17 17 19 23 26 -22 -23 -24 -25 25 -27 -28 -29 -30 -31
leaf_value=-1.7054204387027938 0.13479677739390028 -0.68633630588591354 -0.23508361426237345 -0.87694502382534134 -0.037927769596476146 -0.61114736591901375 -0.29245417470049029 -1.2948176502298523 -0.5778965581401353 -0.61423232334407518 -1.2923005015743403 -1.1274214123916719 -1.916132842365196 -1.1787162950739161 -1.3134271305693321 -1.0083627529659915 -0.19493214906820711 -0.55995105908151876 -0.70417233211711761 0.041013105903509262 -1.7134612215647067 -1.4665471819254092 -1.3565883769360405 -1.0320929022763676 -0.14244578129340413 -0.48156827413969128 -0.62673317857802335 -0.91852702695238986 -1.5672311155730128 -1.3439715831025649
leaf_weight=19027.263908147812 1459.3704635500908 3958.5554962158203 5931.5045080184937 2682.7611980438232 748.27387499809265 2281.2104034423828 802.15754178166389 1943.4947924613953 303.43137836456299 3696.17270642519 3286.984273225069 1122.1248970031738 15032.760854721069 6070.8887934684753 5882.4475879669189 6866.5322775840759 1020.6387017667294 6217.3439980745316 2615.5561028420925 195.41490125656128 5671.2655696868896 6087.0443105697632 2232.7202682495117 13069.866690278053 7403.21282979846 4075.3774965107441 3839.2965542972088 8144.3175773918629 4602.8387603759766 7522.146680355072
leaf_count=57753 4431 12015 18003 8143 2272 6924 2434 5899 921 11219 9977 3406 45629 18427 17855 20842 3098 18873 7939 592 17214 18476 6777 39671 22471 12370 11653 24721 13971 22832
internal_value=-1.12162 -0.867386 -0.638125 -1.63772 -0.758548 -1.21944 -0.836288 -1.27687 -1.09602 -0.306041 -1.00197 -1.7317 -1.77124 -1.43211 -1.17671 -1.1713 -0.673817 -0.698323 -1.03197 -0.726251 -1.60661 -1.32282 -1.66879 -0.977412 -0.217995 -0.262848 -0.811146 -0.896043 -1.48103 -1.31427
internal_weight=0 103210 62505.5 50582.9 45871.4 40704.6 39939.9 36746 16973.3 16634.1 19774.6 42017.7 36292.7 19772.7 8565.21 14692.1 20165.3 19417 18972.4 18396.4 7614.76 12157.9 21260 15685.4 12938 11478.6 12179 8339.73 5724.96 7825.58
internal_count=466808 313274 189724 153534 139233 123550 121230 111535 51519 50491 60021 127536 110159 60016 25998 44595 61209 58937 57587 55839 23113 36903 64530 47610 39272 34841 36966 25313 17377 23753
is_linear=0
shrinkage=1


Tree=14
num_leaves=31
num_cat=0
split_feature=50 101 5 152 9 4 203 157 4 254 254 4 91 5 9 4 254 34 203 203 152 107 157 9 9 47 55 5 9 214
split_gain=73808.6 9362.27 6785.85 3126.69 2634.19 2087.73 1169.8 1135.86 1000.77 948.169 907.014 628.86 613.29 449.021 413.274 349.737 295.438 292.94 290.293 250.376 249.93 247.416 245.117 217.854 204.887 199.897 188.51 187.117 178.02 176.252
threshold=1.0000000180025095e-35 1.0000000180025095e-35 612.50000000000011 1.0000000180025095e-35 56.217632302275518 1137.6430000000003 1.0000000180025095e-35 2043.9660000000001 4157.7610000000013 1.0000000180025095e-35 1.0000000180025095e-35 5681.9240000000009 14796.897712364529 2078.5000000000005 49.928062123672312 1271.4825000000003 1.0000000180025095e-35 42.484419908587078 1.0000000180025095e-35 1.0000000180025095e-35 1.0000000180025095e-35 2697.5000000000005 1129.9315000000004 48.282010770729322 41.710561234106031 47902.820292666307 609.70700000000011 996.50000000000011 28.377051291646371 1782.5944999999817
decision_type=2 2 2 2 2 2 2 2 2 2 2 2 2 2 2 2 2 2 2 2 2 2 2 2 2 2 2 2 2 2
left_child=-1 8 6 11 5 10 -3 16 27 17 -5 15 14 19 26 -4 -6 -7 -12 -11 -14 -9 -18 -22 -17 -20 -8 -2 -10 -21
right_child=1 2 3 4 7 9 12 21 28 13 18 -13 20 -15 -16 24 22 -19 25 29 23 -23 -24 -25 -26 -27 -28 -29 -30 -31
leaf_value=-2.0386163367989418 -1.9041526366549903 -1.6605619710883239 -1.5930574657019947 -1.1585103472889011 -1.5235641757626373 -0.18115198026442692 -0.98782936002853527 -0.40614566259675178 -0.31295092526376289 -0.75997592556227578 -1.2394128319354809 -0.13619098069114555 -1.7159863068760062 0.31016068805347552 -1.1753023207621611 -0.74562228154477239 -0.79008427933029735 -0.72164402730037391 -0.18354790979252056 0.15546532733569718 -0.48095766881228108 -0.099624942350749257 -0.53342673781839234 -0.78060403253900068 -1.274633665726461 -0.4392894564410027 -0.63852345220714324 -1.5825669752967066 -1.0585472791105801 -0.084580882929430223
leaf_weight=52082.700148820877 3151.1050002574921 2036.7775902748108 1598.068630695343 1512.4969646930695 421.94041228294373 2831.4052947759628 3285.0851102173328 6166.1820755004883 485.77783113718033 401.76128759980202 348.05099841952324 611.29267501831055 232.71628963947296 8871.4290998280048 7238.8254616558552 1456.9931425750256 8308.787514090538 1552.6562215089798 6026.7617683708668 6486.377531170845 3885.5407650470734 4596.2281723022461 6739.1431423425674 6460.6399066448212 1471.5800872147083 6201.1241457462311 2916.7005386948586 4249.196989774704 939.66746991872787 5788.3355876803398
leaf_count=153534 9289 6004 4711 4459 1243 8347 9684 18177 1432 1185 1026 1802 686 26151 21339 4295 24493 4577 17766 19120 11454 13549 19866 19045 4338 18280 8598 12526 2770 17062
internal_value=-1.06254 -0.585459 -0.496135 -0.336711 -0.278431 -0.116996 -0.932935 -0.52472 -1.57171 0.051353 -0.426869 -1.08821 -0.871234 0.137603 -1.013 -1.21678 -0.698282 -0.372572 -0.338875 0.0168419 -0.691123 -0.275242 -0.675141 -0.668071 -1.01145 -0.313242 -0.823551 -1.7195 -0.804455 0.0422677
internal_weight=0 106273 97446.9 71390.6 66252.7 40020.4 26056.3 26232.3 8825.75 25932 14088.4 5137.93 24019.5 21547.9 13440.6 4526.64 15469.9 4384.06 12575.9 12676.5 10578.9 10762.4 15047.9 10346.2 2928.57 12227.9 6201.79 7400.3 1425.45 12274.7
internal_count=466808 313274 287257 210447 195301 117973 76810 77328 26017 76442 41531 15146 70806 63518 39621 13344 45602 12924 37072 37367 31185 31726 44359 30499 8633 36046 18282 21815 4202 36182
is_linear=0
shrinkage=1


Tree=15
num_leaves=31
num_cat=0
split_feature=50 101 101 9 9 152 9 152 9 9 60 152 254 9 4 111 111 9 111 60 9 254 34 111 203 60 34 34 136 254
split_gain=173916 2773.85 2531.45 643.669 639.815 620.671 519.654 482.48 417.724 399.379 353.434 300.275 260.244 207.916 195.139 194.469 182.982 181.279 239.698 207.875 168.419 158.679 148.754 139.637 135.453 125.796 115.214 105.831 97.7609 87.8825
threshold=1.0000000180025095e-35 1.0000000180025095e-35 1.0000000180025095e-35 34.110889296698545 52.25326666280845 1.0000000180025095e-35 42.049536268970776 1.0000000180025095e-35 54.781867900591372 61.910336799399452 58.487386128066163 1.0000000180025095e-35 1.0000000180025095e-35 54.781867900591372 2224.6080000000006 62.106942329715146 59.47049817688378 46.450732678399703 58.822554036954692 48.562315345669212 41.553461749914398 1.0000000180025095e-35 47.308939679212983 36.571694282166156 1.0000000180025095e-35 36.112401826884742 44.450622487667921 63.08334774507852 42.133710272940142 1.0000000180025095e-35
decision_type=2 2 2 2 2 2 2 2 2 2 2 2 2 2 2 2 2 2 2 2 2 2 2 2 2 2 2 2 2 2
left_child=2 9 3 24 11 -6 -4 21 10 13 23 -3 -7 17 -14 -15 -10 -2 19 -19 -9 26 -23 -8 25 -1 28 -16 -5 -13
right_child=1 4 6 7 5 12 8 20 16 -11 -12 29 14 15 27 -17 -18 18 -20 -21 -22 22 -24 -25 -26 -27 -28 -29 -30 -31
leaf_value=0.33416200042690458 -1.5592482270192138 -1.7435528954953723 -0.63204696878061617 0.66947287034921099 -1.2078077330276775 -1.4372688626956212 0.40799082821547916 -0.25973398196295816 0.41911811835765778 -0.673835405489281 -1.0978613054551634 -1.9016483304389067 -1.901742394452226 -0.58647633595527071 -1.8471187084108156 -1.4142103442788976 0.0074165459783746002 -0.60432507564737126 -1.6724533712402514 -1.4299847570062147 0.3391027348447464 0.21071566461350488 0.5546712464653456 -0.23658764087044126 -0.38801667540576656 0.007387096788112002 0.69412314339321557 -1.6706274705198847 0.44870010648251069 -2.0259882312022968
leaf_weight=4353.4609751701355 4654.7497653961182 4768.1223170757294 1472.4759678840637 3619.1574599742889 1608.0134358406067 1545.298853635788 405.76949501037598 518.95918798446655 2185.0621120929718 882.03403997421265 444.49214363098145 6677.6495516300201 28758.353635311127 583.83063387870789 6607.8114240169525 552.38822817802429 2133.761759519577 753.94934391975403 685.43800210952759 512.00998282432556 4943.0319757461548 1666.7668118476868 5119.1083202362061 1957.0232715606689 357.4471378326416 1615.1319966316223 15531.755624771118 6993.3888549804688 4499.2019770145416 38214.734575271606
leaf_count=13152 14064 14406 4449 10935 4859 4669 1226 1568 6602 2665 1343 20176 86891 1764 19965 1669 6447 2278 2071 1547 14935 5036 15467 5913 1080 4880 46928 21130 13594 115465
internal_value=-1.1127 -1.85445 0.403329 0.504043 -1.90366 -1.81801 -0.0912357 0.555873 0.0205128 -1.3114 -0.279789 -1.98215 -1.84036 -1.38403 -1.85507 -0.98889 0.215713 -1.45199 -1.19615 -0.938258 0.282206 0.604985 0.470188 -0.125892 0.209925 0.245735 0.643662 -1.75637 0.54712 -2.00749
internal_weight=0 103798 50822.6 42224 95173.4 45512.9 8598.58 35898 7126.11 8624.4 2807.28 49660.5 43904.9 7742.37 42359.6 1136.22 4318.82 6606.15 1951.4 1265.96 5461.99 30436 6785.88 2362.79 6326.04 5968.59 23650.1 13601.2 8118.36 44892.4
internal_count=467174 313619 153555 127575 287561 137514 25980 108463 21531 26058 8482 150047 132655 23393 127986 3433 13049 19960 5896 3825 16503 91960 20503 7139 19112 18032 71457 41095 24529 135641
is_linear=0
shrinkage=1


Tree=16
num_leaves=31
num_cat=0
split_feature=50 5 101 152 107 106 203 9 9 272 69 5 257 55 152 101 78 254 9 254 101 203 209 152 111 254 203 4 152 205
split_gain=20221.9 9007.11 2205.7 1809.75 1738.62 1138.71 1085.39 604.989 563.07 528.447 507.371 466.949 480.562 456.669 407.512 362.521 357.176 331.575 468.098 324.603 290.806 279.16 265.196 253.201 217.566 217.409 204.198 272.208 185.305 177.635
threshold=1.0000000180025095e-35 1103.5000000000002 1.0000000180025095e-35 1.0000000180025095e-35 533.50000000000011 1645.7970000000003 1.0000000180025095e-35 46.865974170763707 60.988738937375494 416.60247620283639 1692.0499417229596 4479.5000000000009 1595.825 3964.1030000000005 1.0000000180025095e-35 1.0000000180025095e-35 10466.020000000002 1.0000000180025095e-35 39.844235275747785 1.0000000180025095e-35 1.0000000180025095e-35 1.0000000180025095e-35 542.50000000000011 1.0000000180025095e-35 55.493660519630033 1.0000000180025095e-35 1.0000000180025095e-35 426.8830000000001 1.0000000180025095e-35 1584.9750000000001
decision_type=2 2 2 2 2 2 2 2 2 2 2 2 2 2 2 2 2 2 2 2 2 2 2 2 2 2 2 2 2 2
left_child=2 4 7 13 9 17 -6 14 24 16 20 12 -7 29 25 -14 -2 -5 -19 -17 -8 -11 -22 -9 -4 -1 -18 -28 -12 -3
right_child=1 3 8 5 6 11 10 23 -10 21 28 -13 15 -15 -16 19 26 18 -20 -21 22 -23 -24 -25 -26 -27 27 -29 -30 -31
leaf_value=-1.6793700109154974 -0.84092665810174838 -0.9222134872537967 -1.0885048754063256 -0.61988265305248591 -0.21038434586949384 -1.5157926451940256 -0.19328345632302824 -1.8933983532034577 -1.5480800212079939 -0.029184566229297326 -0.037390761282308338 -1.6422898941599842 -0.44039733428804895 -1.0698069534530941 -1.0977053310445968 -0.83214104932833965 0.18418484234190347 -1.4414148522748327 -1.0004358755585403 -1.2791565428599754 -0.73497359055427569 -0.60890324271096707 -1.0861348949269376 -1.6228734487775802 -0.57946704499859147 -1.295755248340456 -0.050454648119068857 -0.35943330376265892 -0.68650193290684824 -0.43211240503362114
leaf_weight=16109.262829244137 901.59935599565506 897.59485816955566 4784.3650670051575 1778.3386974334717 3479.9840559661388 6747.6007442474365 475.70486259460449 18564.207562208176 2756.5630226135254 930.72019705176353 458.27909564971924 4501.4022188186646 606.24188661575317 2129.6070404052734 1478.2719237804413 1833.7203242778778 1310.9434949159622 2882.0827438235283 14607.111882030964 14234.309581518173 2938.850408822298 7725.755500793457 8017.6854464709759 4252.2925102710724 1018.3504390716553 1626.5275201797485 4855.5271795988083 6907.711411356926 10903.362113952637 4199.5825366973877
leaf_count=48896 2738 2723 14522 5399 10563 20481 1444 56348 8367 2825 1391 13663 1839 6464 4487 5566 3979 8748 44337 43206 8920 23450 24336 12907 3091 4937 14738 20967 33095 12747
internal_value=-1.12162 -0.867012 -1.63866 -1.14691 -0.555567 -1.21828 -0.730561 -1.73288 -1.17595 -0.352416 -0.809977 -1.34731 -1.29062 -0.680902 -1.60214 -1.1995 -0.232156 -1.03127 -1.07311 -1.22814 -0.958711 -0.546573 -0.991944 -1.84298 -0.999171 -1.64419 -0.190176 -0.231896 -0.66032 -0.518417
internal_weight=0 103324 50589.8 54417.6 48906.1 47190.8 26273.9 42030.6 8559.28 22632.3 22793.9 27923.3 23421.9 7226.78 19214.1 16674.3 13975.8 19267.5 17489.2 16068 11432.2 8656.48 10956.5 22816.5 5802.72 17735.8 13074.2 11763.2 11361.6 5097.18
internal_count=467174 313619 153555 165173 148446 143239 79749 127575 25980 68697 69186 84755 71092 21934 58320 50611 42422 58484 53085 48772 34700 26275 33256 69255 17613 53833 39684 35705 34486 15470
is_linear=0
shrinkage=1


Tree=17
num_leaves=31
num_cat=0
split_feature=50 101 260 152 55 9 203 9 4 254 9 254 9 178 30 5 5 106 9 4 34 4 4 4 254 203 4 162 152 107
split_gain=73865.6 9358.3 6288.67 3121.07 2052.79 1459.03 1039.73 1152.7 987.561 916.186 903.39 736.373 649.893 591.679 552.168 346.751 331.734 328.791 313.637 281.26 279.672 259.816 221.29 237.363 220.355 215.661 201.506 198.348 186.329 166.158
threshold=1.0000000180025095e-35 1.0000000180025095e-35 741.50000000000011 1.0000000180025095e-35 1395.0510000000002 57.574318591512544 1.0000000180025095e-35 47.584855343565721 2178.2830000000008 1.0000000180025095e-35 51.037245686446234 1.0000000180025095e-35 40.190465282293296 13841.985000000002 769.50000000000011 2320.5000000000005 4253.5000000000009 2045.4790000000003 43.464354169245524 1598.3870000000002 44.149690082570054 1116.2105000000004 1839.6255000000003 881.66750000000013 1.0000000180025095e-35 1.0000000180025095e-35 928.44150000000013 48.951227944495365 1.0000000180025095e-35 435.50000000000006
decision_type=2 2 2 2 2 2 2 2 2 2 2 2 2 2 2 2 2 2 2 2 2 2 2 2 2 2 2 2 2 2
left_child=-1 8 6 12 9 11 -3 14 -2 -5 22 15 19 29 21 -6 18 -7 -13 -4 -10 24 23 -11 -8 -12 -16 -20 -15 -9
right_child=1 2 3 4 5 17 7 13 20 10 25 16 -14 28 26 -17 -18 -19 27 -21 -22 -23 -24 -25 -26 -27 -28 -29 -30 -31
leaf_value=-2.0395244528812944 -1.8287691740938841 -1.4617086733816216 -1.317248204804971 -1.1028956529334484 -0.65320698843891278 -0.56869358517796686 -1.4866620484434554 -1.2279086023767138 -0.8954385424268223 -0.40898360276600965 -1.5656234277768131 0.2544689973149834 -1.3976897677509894 -1.8495401628786232 -0.5370220740172571 -0.033330240620877971 0.51092979139242312 -0.24670191698634159 -0.15915823420209219 -0.41475961743908263 -1.4886977722168186 -0.33614272282081836 0.16382630868989811 -0.084060189569485466 -0.74622449466729446 -0.58205818631621487 -0.032430651738812433 0.12188531218948695 -0.77524574957346182 -0.88779852837428275
leaf_weight=52089.822739183903 5549.1218214035034 2671.1923322677612 459.56192713975906 2152.6862034201622 1921.8637237548828 5006.2884175777435 435.55814281105995 6667.8852591812611 1948.8775644302368 4933.4087533354759 226.96106562018394 6531.5823301970959 2902.4527723789215 164.22350826859474 1244.6358085870743 1701.2390003204346 2041.547314196825 8651.7236938476562 5333.8527538776398 1389.1473236083984 1341.6551790237427 1508.2171411514282 1418.6603040397167 4130.806565284729 5205.1460902690887 12546.744122266769 2173.4473249912262 4745.3007669448853 9555.0708718299866 1830.8252675831318
leaf_count=153555 16358 7874 1355 6345 5667 14757 1284 19656 5745 14543 669 19254 8556 484 3669 5015 6018 25504 15723 4095 3955 4446 4182 12177 15344 36986 6407 13987 28167 5397
internal_value=-1.06254 -0.586137 -0.496857 -0.321696 -0.261219 -0.10739 -0.864895 -0.809512 -1.57138 -0.478761 -0.42099 0.0503942 -1.10252 -0.961918 -0.546758 -0.362142 0.130527 -0.364727 0.0837736 -0.639105 -1.13733 -0.704821 -0.203428 -0.260907 -0.803399 -0.599534 -0.216169 -0.0268419 -0.793398 -1.15464
internal_weight=0 106390 97550 66093.8 61342.7 35933.4 31456.2 28785 8839.65 25409.3 23256.6 22275.4 4751.16 18218 10567 3623.1 18652.3 13658 16610.7 1848.71 3290.53 7148.92 10482.9 9064.22 5640.7 12773.7 3418.08 10079.2 9719.29 8498.71
internal_count=467174 313619 287561 194833 180827 105925 92728 84854 26058 74902 68557 65664 14006 53704 31150 10682 54982 40261 48964 5450 9700 21074 30902 26720 16628 37655 10076 29710 28651 25053
is_linear=0
shrinkage=1


Tree=18
num_leaves=31
num_cat=0
split_feature=50 101 101 9 9 9 152 152 9 152 9 9 60 254 9 254 111 9 111 162 9 111 254 162 136 60 203 111 60 162
split_gain=173939 2766.36 2551.45 690.288 643.437 589.695 530.916 463.253 501.15 400.102 366.658 343.727 483.068 253.115 437.908 202.041 196.177 156.734 183.619 144.346 129.291 153.622 125.562 124.963 108.884 108.365 106.287 97.2291 93.2978 92.5629
threshold=1.0000000180025095e-35 1.0000000180025095e-35 1.0000000180025095e-35 56.357725424218991 50.630202800356152 43.156832711235701 1.0000000180025095e-35 1.0000000180025095e-35 56.958453112483689 1.0000000180025095e-35 44.694043515663559 52.525955452729768 51.478897942559364 1.0000000180025095e-35 43.309296809639925 1.0000000180025095e-35 54.653991601742185 59.471398059999991 52.415204036491538 55.774909215245863 37.272998576906325 46.137329893522441 1.0000000180025095e-35 58.495320888947866 37.457440337648926 52.559177095034265 1.0000000180025095e-35 49.942054800625094 58.015341787150284 50.914282888036531
decision_type=2 2 2 2 2 2 2 2 2 2 2 2 2 2 2 2 2 2 2 2 2 2 2 2 2 2 2 2 2 2
left_child=2 4 7 9 -2 24 28 8 13 20 27 12 -7 14 29 -8 -13 18 -12 25 -3 -22 -11 -15 -4 -6 -17 -9 -5 -1
right_child=1 3 5 6 19 11 15 10 -10 22 17 16 -14 23 -16 26 -18 -19 -20 -21 21 -23 -24 -25 -26 -27 -28 -29 -30 -31
leaf_value=0.43730692160384343 -1.5090206135095952 -1.9046610499074343 -0.36504603140410741 -0.72601687955466576 -0.29131499852448151 0.13924614135088098 -1.3468166059056819 -0.108349295551601 0.75622235386572223 -1.8701091020228646 0.52555234291428699 0.44149629662622858 -0.83362976274276179 0.35123501117001532 0.66539427215993752 -1.3085058926157789 0.027208862280773349 0.56736982855856621 -0.034219576222886294 -1.0755152001857904 -1.3463963085905464 -1.7802139496531795 -2.0106267021359647 -0.058006204365945724 -0.87258979932110947 -1.0095821388804593 -1.8311881934062249 -0.81672105192275724 -1.3343592644853752 0.22848675443725663
leaf_weight=10371.788098335266 5660.567506313324 2004.1329565048218 837.01457095146179 423.20388317108154 505.39074850082397 1115.3681437969208 909.17378783226013 947.23398208618164 8667.4370079040527 7324.3662633895874 994.56333565711975 1820.0025000572205 940.94653630256653 2735.4683237075806 11012.041036605835 393.85401844978333 3072.7228302955627 2136.0784034729004 1426.4796502590179 2092.7211227416992 1499.954788684845 1790.8765902519226 48253.40945482254 1026.0057640075684 853.90150475502014 359.43295860290527 31901.540751457214 243.59360504150391 623.54667806625366 2668.9568500518799
leaf_count=31336 17103 6055 2529 1279 1527 3370 2747 2862 26188 22130 3005 5499 2843 8265 33272 1190 9284 6454 4310 6323 4532 5411 145796 3100 2580 1086 96388 736 1884 8064
internal_value=-1.1127 -1.85403 0.403389 -1.90319 -1.31151 -0.0917383 -1.78962 0.50469 0.546263 -1.96708 0.240825 0.0371331 -0.305931 0.480836 0.518561 -1.81173 0.181316 0.369933 0.195734 -0.933497 -1.70443 -1.58248 -1.99211 0.239608 -0.621352 -0.589837 -1.82481 -0.253253 -1.0884 0.394569
internal_weight=0 103742 50869.6 95124.1 8618.11 8639.96 34251.3 42229.6 36481.7 60872.7 5747.95 6949.04 2056.31 27814.3 24052.8 33204.6 4892.73 4557.12 2421.04 2957.54 5294.96 3290.83 55577.8 3761.47 1690.92 864.824 32295.4 1190.83 1046.75 13040.7
internal_count=467148 313451 153697 287412 26039 26105 103488 127592 110225 183924 17367 20996 6213 84037 72672 100325 14783 13769 7315 8936 15998 9943 167926 11365 5109 2613 97578 3598 3163 39400
is_linear=0
shrinkage=1


Tree=19
num_leaves=31
num_cat=0
split_feature=50 107 101 152 5 56 203 68 4 254 4 152 9 9 101 34 9 152 34 9 101 88 4 9 254 209 56 4 203 203
split_gain=20108.7 8130.26 2208.27 2051.86 1660.54 1633.34 1010.78 899.865 756.757 679.574 466.987 418.875 417.433 411.319 396.867 353.026 339.133 356.142 324.461 319.173 301.325 298.315 234.76 219.687 276.559 206.927 184.862 184.236 170.258 147.8
threshold=1.0000000180025095e-35 981.50000000000011 1.0000000180025095e-35 1.0000000180025095e-35 2296.5000000000005 377.50000000000006 1.0000000180025095e-35 1782.6625714029194 1930.8655000000001 1.0000000180025095e-35 436.15800000000007 1.0000000180025095e-35 35.880639107600111 43.932951794614198 1.0000000180025095e-35 48.564198839206249 51.722769813515704 1.0000000180025095e-35 58.954970209084927 52.120622759770605 1.0000000180025095e-35 14787.211977180941 863.3475000000002 55.196766438442069 1.0000000180025095e-35 2256.5000000000005 1428.5000000000002 1459.9610000000002 1.0000000180025095e-35 1.0000000180025095e-35
decision_type=2 2 2 2 2 2 2 2 2 2 2 2 2 2 2 2 2 2 2 2 2 2 2 2 2 2 2 2 2 2
left_child=2 5 11 8 7 21 -7 20 -3 -9 -8 12 -1 -6 -11 -4 17 -12 26 -13 -5 29 -19 24 -14 -15 -16 -18 -22 -2
right_child=1 3 15 4 13 6 10 9 -10 14 16 19 23 25 18 -17 27 22 -20 -21 28 -23 -24 -25 -26 -27 -28 -29 -30 -31
leaf_value=-1.5589262215340602 0.18948457292181509 -0.28736619013447318 -0.8950238234794855 -0.48025097919122828 -1.6546919799351834 -0.19380880155606262 -0.42188621991584307 -0.43234356955557418 -0.91325543601495673 -0.16974162711722551 -0.13351274487130604 -1.1929381369596546 -1.8151709762461756 -1.1452235321513993 -0.9688662062242136 -1.3225956401946912 -0.584816953223813 -0.78023616782004224 -0.80414239099368079 -1.674884671617106 -0.8744658252797588 -0.50651863169281897 -1.1020688182970022 -1.9450762476819112 -1.483260712865373 -1.4216798331105287 -1.1924006149159794 -0.84560915203285347 -1.354332356849687 -0.21866011979870936
leaf_weight=7292.0277217626572 976.37343594431877 3519.7083549499512 2927.5474729537964 446.34485748410225 5596.2743434607983 3755.1638133525848 3705.1192147731781 2365.4212167263031 4281.947193145752 562.73973560333252 521.53784000873566 2293.3432998657227 15877.164649963379 4133.0343780517578 6546.123194038868 5672.9131622314453 6893.2147744894028 3618.419078707695 5136.9968845248222 3428.3258113861084 798.602463722229 3833.885697633028 6066.6135140657425 10163.396636962891 2981.9039039611816 7849.6289558410645 8508.1112732887268 4462.4850928783417 9970.3413343429565 9720.2813339233398
leaf_count=22133 2965 10682 8886 1356 16986 11398 11246 7179 12997 1708 1583 6961 48192 12545 19871 17219 20923 10983 15592 10406 2424 11637 18414 30849 9051 23826 25824 13545 30263 29504
internal_value=-1.12162 -0.869425 -1.63874 -1.10905 -1.18091 -0.540874 -0.6779 -1.05294 -0.630886 -0.940183 -0.749844 -1.7332 -1.77282 -1.43086 -0.998064 -1.17705 -0.806198 -0.938482 -1.02115 -1.48171 -1.28538 -0.267187 -0.981829 -1.82656 -1.76269 -1.32633 -1.0952 -0.687301 -1.31875 -0.181405
internal_weight=0 103268 50636.6 59715.3 51913.6 43553.1 29022.6 34334.7 7801.66 23119.4 25267.4 42036.2 36314.5 17578.9 20754 8600.46 21562.3 10206.6 20191.2 5721.67 11215.3 14530.5 9685.03 29022.5 18859.1 11982.7 15054.2 11355.7 10768.9 10696.7
internal_count=467148 313451 153697 181253 157574 132198 88092 104217 23679 70174 76694 127592 110225 53357 62995 26105 65448 30980 61287 17367 34043 44106 29397 88092 57243 36371 45695 34468 32687 32469
is_linear=0
shrinkage=1


Tree=20
num_leaves=31
num_cat=0
split_feature=50 101 56 152 9 4 203 254 9 208 16 9 55 254 4 254 254 203 9 152 203 34 157 5 4 106 254 106 226 254
split_gain=74093.8 9394 6937.12 3079.61 2275.08 1472.16 1353.86 1111.15 1009.56 996.649 686.846 675.603 561.882 525.064 495.643 419.948 409.889 319.454 308.641 288.048 267.811 265.866 253.262 227.857 196.464 195.401 193.933 185.898 178.35 152.614
threshold=1.0000000180025095e-35 1.0000000180025095e-35 772.50000000000011 1.0000000180025095e-35 49.792897008653227 1788.1540000000002 1.0000000180025095e-35 1.0000000180025095e-35 44.390522464179298 1735.8460000000002 413.02427275012423 30.94132947214063 2158.4395000000004 1.0000000180025095e-35 675.94550000000015 1.0000000180025095e-35 1.0000000180025095e-35 1.0000000180025095e-35 58.347691394706693 1.0000000180025095e-35 1.0000000180025095e-35 41.67417970496949 2914.5080000000003 2759.5000000000005 1950.2745000000002 724.05450000000008 1.0000000180025095e-35 475.46250000000003 1770.9695949076483 1.0000000180025095e-35
decision_type=2 2 2 2 2 2 2 2 2 2 2 2 2 2 2 2 2 2 2 2 2 2 2 2 2 2 2 2 2 2
left_child=-1 12 6 11 5 7 -3 -5 14 16 27 -4 24 -11 29 -7 -6 -9 -18 -12 -15 -14 -22 -13 -2 -21 -16 -10 -19 -8
right_child=1 2 3 4 9 15 8 17 10 13 19 23 21 20 26 -17 18 28 -20 25 22 -23 -24 -25 -26 -27 -28 -29 -30 -31
leaf_value=-2.0395054798017576 -1.8708279426367964 -1.558607757119695 -0.29197345459608826 -0.9392569959977356 -1.3877546041621371 -0.10947830980586659 -1.4967470751045802 -1.0221487436374992 -1.2819970589196803 -1.0003986481361242 -1.8307088146573038 -1.3742470802010485 -0.97595329379939399 -1.0965807482288366 -0.86419633480500391 0.33802050877093959 -0.39087988905206672 0.14353841708400306 -0.66697620083599218 -0.88561207582484969 -0.30071895862848863 -1.5258334573199528 -0.047174978968274051 -0.74783149647273284 -1.3823249236050286 -0.62992050862958948 -0.22015221606596036 -1.0017743427274441 -0.16144568407911297 -0.72699146853693986
leaf_weight=52137.992379307747 4291.5965690612793 2607.7660264968872 888.67909196019173 1960.6660222709179 606.24399581551552 2702.6398963928223 278.83987733721733 383.33142098784447 4037.492073148489 858.97265529632568 247.66733640432358 3154.1615785062313 1690.0452027320862 324.98199281096458 527.50284588336945 9359.021556854248 6998.1147509515285 2465.8554081618786 9607.2508098185062 5296.7252424657345 8240.2335684001446 1832.860360622406 7548.8832508921623 711.70474886894226 1018.7085428237915 6859.2280747890472 4113.1655073165894 5723.1522178947926 8621.1845430731773 3376.0185575485229
leaf_count=153697 12651 7687 2620 5779 1789 7967 822 1130 11902 2531 730 9298 4982 958 1555 27589 20628 7269 28320 15614 24291 5403 22253 2098 3003 20220 12125 16871 25414 9952
internal_value=-1.06254 -0.584198 -0.494733 -0.303643 -0.241934 -0.0158335 -0.867072 -0.243563 -0.807867 -0.410545 -0.919245 -1.07819 -1.57169 -0.238601 -0.510284 0.23775 -0.580105 -0.124645 -0.550619 -0.763085 -0.197993 -1.26204 -0.179498 -1.25892 -1.77712 -0.741333 -0.29336 -1.11769 -0.0936145 -0.785718
internal_weight=0 106333 97499.5 64431.9 59677.4 25492.7 33067.6 13431 30459.8 34184.7 22164.3 4754.55 8833.21 16973.1 8295.53 12061.7 17211.6 11470.4 16605.4 12403.6 16114.1 3522.91 15789.1 3865.87 5310.31 12156 4640.67 9760.64 11087 3654.86
internal_count=467148 313451 287412 189934 175918 75148 97478 39592 89791 100770 65337 14016 26039 50033 24454 35556 50737 33813 48948 36564 47502 10385 46544 11396 15654 35834 13680 28773 32683 10774
is_linear=0
shrinkage=1


Tree=21
num_leaves=31
num_cat=0
split_feature=50 101 101 9 9 9 152 152 9 152 9 9 111 9 60 111 254 9 254 85 60 60 9 9 111 254 34 60 203 4
split_gain=173793 2763.35 2520.65 733.038 657.626 540.741 513.658 453.288 806.675 297.892 295.746 221.525 285.507 204.522 200.755 196.551 195.124 180.679 155.838 147.497 145.879 144.788 448.629 173.023 408.894 139.628 129.618 126.117 120.525 119.634
threshold=1.0000000180025095e-35 1.0000000180025095e-35 1.0000000180025095e-35 47.010715314569275 62.466602784434066 40.013718418907793 1.0000000180025095e-35 1.0000000180025095e-35 43.932951794614198 1.0000000180025095e-35 40.542021355882049 61.168192187637153 41.39469772539119 62.891236360005969 49.681949068884826 57.11328154946272 1.0000000180025095e-35 53.384549164827462 1.0000000180025095e-35 44.005047540689574 56.235760860425728 49.955654578101878 53.65539769000835 65.58216625619589 58.50114918637972 1.0000000180025095e-35 38.877771602950141 58.789420730227356 1.0000000180025095e-35 2812.4160000000006
decision_type=2 2 2 2 2 2 2 2 2 2 2 2 2 2 2 2 2 2 2 2 2 2 2 2 2 2 2 2 2 2
left_child=2 5 7 19 6 -2 26 8 16 -6 -9 12 -7 15 -14 -12 29 -16 -8 -4 -19 -5 -23 24 -24 -10 -3 -13 -11 -1
right_child=1 4 3 21 9 11 18 10 25 28 13 27 14 -15 17 -17 -18 20 -20 -21 -22 22 23 -25 -26 -27 -28 -29 -30 -31
leaf_value=0.47193521195235344 -1.6554285574530065 -1.8567892942452719 -0.31782956282854768 0.50311894227406295 -0.93296629611561632 -0.36165413744868369 -1.8376980963835723 -0.3603379062079296 0.71670082135615343 -1.1104223745747235 0.3785728184232755 0.034422706950732795 -1.0750231863274586 0.61878269576301137 -1.8020965672715932 -0.11569868535659733 -0.029115567939402842 -0.82290193978902482 -1.986608088750061 -0.81122326214865526 -1.5551891902128032 -0.55637883099845187 0.29438937934204401 0.41210092980475732 -0.54597689091599788 0.53622958449846614 -1.5496392916820496 -0.87304220598256865 -1.7686739525509154 0.27847293465630818
leaf_weight=8386.9980943202972 2995.2676620483398 2172.8658165931702 1259.0009486675262 756.26571393013 446.76438570022583 357.7774543762207 7931.0386717319489 711.58347797393799 15826.645820379257 282.31349468231201 2092.7206573486328 190.63859987258911 2147.9940688610077 1636.9761428833008 1057.1172368526459 1306.9995708465576 1160.0484387874603 498.10926818847656 61716.288712739944 1167.9916503429413 599.38621473312378 1034.6112263202667 1706.1486442089081 1815.0379884243011 876.40809345245361 5879.6801588535309 3736.6472473144531 778.77141666412354 18897.715245246887 5164.7794771194458
leaf_count=25339 9050 6565 3804 2285 1350 1081 23963 2150 47819 853 6323 576 6490 4946 3194 3949 3505 1505 186473 3529 1811 3126 5155 5484 2648 17765 11290 2353 57098 15605
internal_value=-1.1127 -1.85416 0.40339 -0.089495 -1.90327 -1.31215 -1.94563 0.504097 0.545289 -1.74018 0.243125 -1.12952 -1.21999 0.328382 -1.29136 0.188553 0.364509 -1.50704 -1.96965 -0.555276 -1.22283 0.0931746 0.0361026 0.175494 0.00920542 0.667816 -1.66258 -0.694585 -1.75899 0.398204
internal_weight=0 103809 50781.9 8615.46 95183.6 8625.06 75556.8 42166.4 36418.2 19626.8 5748.28 5629.79 4660.38 5036.7 4302.61 3399.72 14711.8 2154.61 69647.3 2426.99 1097.5 6188.47 5432.21 4397.59 2582.56 21706.3 5909.51 969.41 19180 13551.8
internal_count=467084 313652 153432 26031 287592 26060 228291 127401 110033 59301 17368 17010 14081 15218 13000 10272 44449 6510 210436 7333 3316 18698 16413 13287 7803 65584 17855 2929 57951 40944
is_linear=0
shrinkage=1


Tree=22
num_leaves=31
num_cat=0
split_feature=50 56 101 152 55 209 203 4 254 9 101 152 4 152 4 34 254 157 9 5 101 9 9 9 274 9 254 9 60 9
split_gain=20054.8 8308.46 2192.28 2145.09 1548.99 1468.92 919.621 586.265 560.567 518.392 513.883 405.461 401.393 398.195 636.052 365.655 386.361 361.961 352.923 318.945 285.266 318.551 282.505 256.759 202.895 183.716 179.409 178.602 155.812 275.957
threshold=1.0000000180025095e-35 974.50000000000011 1.0000000180025095e-35 1.0000000180025095e-35 1677.1170000000002 389.50000000000006 1.0000000180025095e-35 5246.2050000000008 1.0000000180025095e-35 62.466602784434066 1.0000000180025095e-35 1.0000000180025095e-35 764.64350000000013 1.0000000180025095e-35 737.1545000000001 58.329588528334384 1.0000000180025095e-35 2648.8255000000004 33.53340014568824 2098.5000000000005 1.0000000180025095e-35 43.932951794614198 44.840151952574026 38.741166820052179 1665.5665445019088 64.851370162286102 1.0000000180025095e-35 41.553461749914398 58.165698675384853 41.710561234106031
decision_type=2 2 2 2 2 2 2 2 2 2 2 2 2 2 2 2 2 2 2 2 2 2 2 2 2 2 2 2 2 2
left_child=2 5 11 17 8 12 -7 10 -5 28 -6 18 26 -8 -15 16 -12 19 -1 -3 -10 -22 -13 -16 -23 -9 -2 -18 29 -4
right_child=1 3 9 4 7 6 13 25 20 -11 15 22 -14 14 23 -17 27 -19 -20 -21 21 24 -24 -25 -26 -27 -28 -29 -30 -31
leaf_value=-1.5421149162657399 0.2550114860304229 -0.28977622339321074 -0.74455909616451743 -0.48167953932290652 -0.5131366693254491 -0.17873811927027117 -0.10252503216295761 -1.7393259650277937 -0.28151612168186602 -1.5685178196135405 -1.0011142114986662 -1.0481036789412019 -0.49579840155702493 -0.56010676134174575 -1.2090038414182152 -1.1045332763589824 -1.6085007836093763 -0.90434974753382913 -1.8140869737182657 -0.82752531435775456 -1.29006063537718 -1.3119650299045449 -1.598186444099932 -0.83666986650292829 -0.93816955809777469 -1.3882087765663274 -0.20249035259676185 -1.3607543452791946 -0.74606137528985006 -1.2761174938660969
leaf_weight=5652.654439330101 953.98224118351936 3387.5994396209717 1402.8226831555367 2054.809245288372 890.50772553682327 3366.0586542785168 955.74475517868996 3808.2247166633606 494.84498286247253 2432.3777542114258 2386.1064964532852 1174.8380393981934 5519.7156219482422 9533.8791734576225 2180.0204027593136 7481.415744304657 4211.3182131946087 2989.159538269043 30598.584352493286 1635.4219074249268 4293.4736065864563 1635.7500425577164 4547.1605129241943 12312.105676233768 12935.449785351753 2448.191385269165 8444.955099105835 9415.8527657091618 1526.0425763130188 3214.8378407359123
leaf_count=17157 2897 10281 4258 6238 2702 10217 2901 11559 1502 7383 7243 3566 16754 28938 6617 22708 12784 9073 92876 4964 13032 4965 13802 37371 39263 7431 25633 28579 4632 9758
internal_value=-1.12162 -0.869852 -1.6385 -1.1105 -1.18464 -0.535746 -0.669415 -1.32885 -0.978298 -1.17778 -1.25879 -1.73263 -0.281755 -0.735529 -0.76071 -1.28705 -1.37232 -0.628823 -1.77168 -0.464859 -1.03101 -1.05067 -1.48524 -0.892679 -0.980132 -1.60193 -0.156054 -1.43732 -1.02308 -1.11463
internal_weight=0 103335 50549.3 60068.1 52055.9 43266.5 28347.8 30641.6 21414.3 8576.08 24385.2 41973.2 14918.7 24981.8 24026 23494.7 16013.3 8012.18 36251.2 5023.02 19359.5 18864.7 5722 14492.1 14571.2 6256.42 9398.94 13627.2 6143.7 4617.66
internal_count=467084 313652 153432 182324 158006 131328 86044 93006 65000 26031 74016 127401 45284 75827 72926 71314 48606 24318 110033 15245 58762 57260 17368 43988 44228 18990 28530 41363 18648 14016
is_linear=0
shrinkage=1


Tree=23
num_leaves=31
num_cat=0
split_feature=50 101 5 152 34 203 240 5 254 107 4 4 152 4 9 9 254 9 9 254 9 4 254 9 215 56 34 4 55 203
split_gain=74102 9417.57 7077.96 2517.67 2428.7 1843.32 1170.65 1000.26 849.106 831.417 634.24 628.793 611.634 529.041 526.383 379.937 372.458 562.28 365.265 365.147 372.315 341.723 325.566 266.895 253.261 226.076 205.086 184.124 183.64 179.59
threshold=1.0000000180025095e-35 1.0000000180025095e-35 928.50000000000011 1.0000000180025095e-35 48.964589775949101 1.0000000180025095e-35 13827.538285714287 2796.5000000000005 1.0000000180025095e-35 1885.5000000000002 2069.4060000000004 2069.4060000000004 1.0000000180025095e-35 900.59400000000016 41.553461749914398 41.386496977662176 1.0000000180025095e-35 56.664366910576234 37.479660889994783 1.0000000180025095e-35 59.809273982122519 667.42700000000002 1.0000000180025095e-35 70.217600584570931 1721.2767142857208 2882.5000000000005 38.877771602950141 2653.2960000000003 2095.1475000000005 1.0000000180025095e-35
decision_type=2 2 2 2 2 2 2 2 2 2 2 2 2 2 2 2 2 2 2 2 2 2 2 2 2 2 2 2 2 2
left_child=-1 7 5 10 8 -3 14 27 11 16 -4 -5 -8 -10 -7 -15 -6 24 -12 -14 21 -21 -11 25 -18 -24 -9 -2 -16 -17
right_child=1 2 3 4 9 6 12 26 13 22 18 -13 19 15 28 29 17 -19 -20 20 -22 -23 23 -25 -26 -27 -28 -29 -30 -31
leaf_value=-2.0397407545244044 -1.8016386347818552 -1.5321127636634748 -1.4111161049028944 -0.84115805797155219 -1.183128437181203 -0.62358502675501026 -1.6505097584026767 -0.54392327612514091 -0.28103952435616741 -0.89043900980340018 -0.24572882815362163 -0.04016347121415631 -1.1481148844439104 0.35306842793038107 -1.120710315220864 -0.89213123530322425 0.086334429121640133 -0.64406087141833746 -1.0541204356402212 -0.63662880568627267 -0.8055707372050076 -0.34217061816647176 -0.20904045841506613 -0.4250438781289233 -0.38210194383069795 0.10495752188107854 -1.2522489628998494 -1.3605643790902489 -0.66508438567782735 0.067316435971403354
leaf_weight=52048.097262501717 6072.8934736251831 3326.9653744697571 2047.4627985954285 1699.0554885864258 851.33599209785461 3259.308601886034 550.22823777794838 891.15768963098526 2698.5707015991211 666.17218089103699 1143.5447120964527 2315.9240112304688 1084.5325751304626 7904.0577916204929 10100.581578433514 200.15958794951439 1554.4198998510838 10564.598050683737 1093.3385734260082 7422.7153140604496 4524.6446067690849 8402.71931168437 6148.8831511735916 3187.4043837785721 4482.2481365203857 3656.557790517807 755.12629932165146 1121.1560044288635 969.519591152668 7705.5962038040161
leaf_count=153432 17902 9807 6036 5008 2511 9608 1622 2627 7955 1963 3371 6827 3197 23300 29775 590 4581 31142 3223 21881 13338 24770 18126 9396 13213 10779 2226 3305 2858 22715
internal_value=-1.06254 -0.583663 -0.494107 -0.271274 -0.212348 -0.819685 -0.754415 -1.57199 0.0377485 -0.393407 -1.00896 -0.379128 -0.609462 0.12818 -0.976809 0.19803 -0.538026 -0.504945 -0.640853 -0.582738 -0.552607 -0.480282 -0.208621 -0.173662 -0.261481 -0.0919471 -0.868822 -1.7329 -1.08081 0.0430249
internal_weight=0 106401 97560.5 57919.3 53635 39641.2 36314.2 8840.33 22523.4 31111.6 4284.35 4014.98 21984.8 18508.4 14329.4 15809.8 17452.6 16601.3 2236.88 21434.6 20350.1 15825.4 13659 12992.8 6036.67 9805.44 1646.28 7194.05 11070.1 7905.76
internal_count=467084 313652 287592 170736 158106 116856 107049 26060 66395 91711 12630 11835 64808 54560 42241 46605 51447 48936 6594 63186 59989 46651 40264 38301 17794 28905 4853 21207 32633 23305
is_linear=0
shrinkage=1


Tree=24
num_leaves=31
num_cat=0
split_feature=50 101 101 9 9 152 152 9 9 9 254 111 152 9 60 111 203 254 5 34 162 111 111 60 111 60 111 5 9 254
split_gain=173900 2783.07 2528.59 811.548 707.163 615.276 596.256 699.132 354.629 341.919 260.538 178.78 178.154 167.272 489.431 191.031 155.572 144.873 144.222 139.843 135.373 132.144 100.226 98.5331 95.1545 90.1099 83.626 103.374 82.5397 77.0508
threshold=1.0000000180025095e-35 1.0000000180025095e-35 1.0000000180025095e-35 56.357725424218991 52.968265937635671 1.0000000180025095e-35 1.0000000180025095e-35 59.30890781091469 48.682905402053962 63.285058969867983 1.0000000180025095e-35 59.97464989018814 1.0000000180025095e-35 44.088101863716638 48.842161143252191 41.39469772539119 1.0000000180025095e-35 1.0000000180025095e-35 4362.5000000000009 34.942266001877918 56.942062748365139 53.956803791366021 48.136464320924482 65.111543288390109 47.567625914264319 53.255529378348122 54.096307585286638 2098.5000000000005 54.07894670083224 1.0000000180025095e-35
decision_type=2 2 2 2 2 2 2 2 2 2 2 2 2 2 2 2 2 2 2 2 2 2 2 2 2 2 2 2 2 2
left_child=2 9 4 13 5 10 8 17 -3 -2 18 -5 -6 15 -15 -4 -9 -8 19 -1 -12 -10 -21 24 -16 -7 29 -28 -19 -18
right_child=1 6 3 11 12 25 7 16 21 -11 20 -13 -14 14 23 -17 26 28 -20 22 -22 -23 -24 -25 -26 -27 27 -29 -30 -31
